tree
version=v4
num_class=1
num_tree_per_iteration=1
label_index=0
max_feature_idx=10
objective=regression_l1
feature_names=forecast_price dam_price dayofweek month quarter is_weekend forecast_price_lag_1min forecast_price_lag_15min forecast_rolling_mean_5min forecast_rolling_std_15min forecast_vs_dam
feature_infos=[-850:999] [-69.629999999999995:250.81] -1:6:5:4:1:0:3:2 -1:8:9:7 none -1:0:1 [-850:999] [-850:999] [-850:999] [0:509.66434073062288] [-850.64999999999998:899]
tree_sizes=2727 2861 2838 2812 2817 2913 2852 2776 2854 2818 2881 2910 2850 2873 2850 2862 2820 2828 2806 2839 2778 2829 2822 2887 2906 2823 2889 2835 2812 2813 2924 2873 2909 2799 2874 2902 2822 2874 2857 2888 2824 2856 2829 2869 2856 2800 2873 2859 2897 2843 2844 2826 2840 2836 2837 2863 2879 2855 2878 2857 2896 2837 2863 2912 2753 2799 2836 2841 2840 2869 2812 2753 2885 2837 2839 2786 2909 2836 2868 2768 2796 2768 2854 2840 2804 2831 2808 2778 2826 2758 2824 2797 2783 2788 2851 2830 2810 2770 2766 2837 2802 2820 2865 2810 2752 2790 2799 2751 2789 2794 2793 2797 2771 2801 2775 2784 2793 2791 2811 2840 2769 2776 2766 2794 2827 2793 2771 2801 2851 2817 2780 2783 2779 2756 2765 2754 2797 2808 2839 2790 2799 2794 2710 2825 2734 2715 2743 2828 2758 2782 2813 2835 2830

Tree=0
num_leaves=31
num_cat=4
split_feature=0 1 1 8 0 8 1 1 8 7 2 1 0 1 7 8 1 7 7 0 2 8 2 0 1 1 2 1 1 1
split_gain=26761.3 2834.51 1126.5 723.416 705.946 403.981 251.19 217.856 186.624 161.306 130.827 107.465 107.109 101.977 94.5002 73.4737 73.0195 71.9182 63.8281 63.825 63.573 63.5629 61.1131 63.3417 60.2639 53.8769 51.6691 73.5791 51.3578 48.6458
threshold=69.00500000000001 63.685000000000009 45.915000000000006 49.000000000000021 94.980000000000004 48.85499999999999 97.095000000000013 91.020000000000024 94.180999999999997 79.50500000000001 0 38.685000000000009 79.50500000000001 37.780000000000008 73.00500000000001 75.742000000000033 85.140000000000015 100.52500000000002 78.205000000000013 48.705000000000005 1 64.002000000000024 2 73.77500000000002 43.225000000000001 148.85500000000005 3 118.53500000000001 103.05000000000001 73.670000000000016
decision_type=2 2 2 2 2 2 2 2 2 2 1 2 2 2 2 2 2 2 2 2 1 2 1 2 2 2 1 2 2 2
left_child=1 5 8 6 12 11 14 15 -2 16 24 -1 22 21 19 -5 -6 26 25 -3 29 -7 -4 -24 -10 -8 27 -9 -11 -21
right_child=2 3 4 7 9 13 18 17 10 28 -12 -13 -14 -15 -16 -17 -18 -19 -20 20 -22 -23 23 -25 -26 -27 -28 -29 -30 -31
leaf_value=68.102997970581058 71.467498016357425 69.992997932434079 72.406497955322266 71.31099796295166 73.152997970581055 70.902997970581055 71.007997894287115 72.05299797058106 73.829998016357422 73.305498123168945 71.602997970581058 69.645998001098633 72.676998138427734 70.981998062133783 70.852997970581058 72.002997970581049 73.16999778747558 72.752997970581049 72.458498001098633 71.877997970581049 70.602997970581058 71.249497985839838 71.752997970581049 72.002997970581049 71.152997970581055 72.549998092651364 71.652997970581055 73.167498016357428 73.529998016357425 70.602997970581058
leaf_weight=11748 1639 4960 2241 4218 2256 2650 727 955 1239 11302 751 4551 5010 2191 1094 798 2459 607 287 201 708 1087 840 1886 26 69 1336 148 5551 260
leaf_count=11748 1639 4960 2241 4218 2256 2650 727 955 1239 11302 751 4551 5010 2191 1094 798 2459 607 287 201 708 1087 840 1886 26 69 1336 148 5551 260
internal_value=71.74 71.7112 71.7715 71.727 71.7746 71.6996 71.7167 71.7377 71.7452 71.7796 71.7554 71.6955 71.7636 71.7108 71.7133 71.7313 71.7715 71.7482 71.7391 71.7109 71.7214 71.7058 71.7584 71.7532 71.7651 71.7318 71.7444 71.7524 71.7819 71.7363
internal_weight=73795 38595 35200 16368 31545 22227 8306 8062 3655 21568 2016 16299 9977 5928 7223 5016 4715 3046 1083 6129 1169 3737 4967 2726 1265 796 2439 1103 16853 461
internal_count=73795 38595 35200 16368 31545 22227 8306 8062 3655 21568 2016 16299 9977 5928 7223 5016 4715 3046 1083 6129 1169 3737 4967 2726 1265 796 2439 1103 16853 461
cat_boundaries=0 1 2 3 4
cat_threshold=57 21 26 106
is_linear=0
shrinkage=1


Tree=1
num_leaves=31
num_cat=3
split_feature=0 1 1 0 8 8 1 1 7 7 8 0 3 1 1 7 1 3 8 0 7 8 1 7 1 3 1 1 7 0
split_gain=25008.7 2552.44 1037.49 713.877 713.62 412.945 253.553 222 188.081 174.027 132.549 121.644 109.751 108.75 92.9717 87.8623 87.6529 83.9589 80.1731 76.0691 74.1883 68.705 65.0403 59.7694 59.2736 54.2206 51.5982 50.0042 49.5844 49.3997
threshold=69.785000000000011 63.685000000000009 45.915000000000006 94.980000000000004 49.000000000000021 47.036000000000008 97.095000000000013 91.020000000000024 57.875000000000007 79.50500000000001 64.002000000000024 79.50500000000001 0 17.590000000000003 2.4600000000000004 73.00500000000001 -0.079999999999999988 1 94.180999999999997 48.705000000000005 100.52500000000002 69.457000000000022 37.780000000000008 78.205000000000013 71.205000000000013 2 148.85500000000005 8.8250000000000011 70.645000000000024 60.505000000000003
decision_type=2 2 2 2 2 2 2 2 2 2 2 2 1 2 2 2 2 1 2 2 2 2 2 2 2 1 2 2 2 2
left_child=1 5 8 11 6 13 15 21 27 12 22 17 -5 -1 16 19 28 -4 25 -3 -9 24 -7 26 -6 -16 -8 -2 -10 -24
right_child=2 4 3 9 7 10 23 20 14 -11 -12 -13 -14 -15 18 -17 -18 -19 -20 -21 -22 -23 29 -25 -26 -27 -28 -29 -30 -31
leaf_value=-3.455149898529053 -0.71537490844726581 -1.6596499347686766 0.12985002517700225 1.232350254058838 0.013450193405151368 -0.79514989852905282 -0.69539997100830109 0.24735010147094699 4.9661247634887697 1.5437251091003419 -0.41247489929199194 0.89015026092529304 1.3423501014709474 -2.4177998542785648 0.18762516021728504 -0.84264989852905292 2.2846252822875974 0.55885011672973661 1.0280000686645507 -1.080149898529053 1.0248501014709477 0.079450178146362307 -0.90609987258911107 0.68257513046264651 -0.53804993629455566 -0.34937492370605483 0.76950021743774433 -0.26187473297119157 -1.1051498985290529 -0.16809976577758762
leaf_weight=8969 392 4960 1188 1446 754 2820 729 2481 92 16853 1801 5010 3269 7000 259 1095 706 3593 977 1174 620 1242 1394 287 3132 392 69 549 233 309
leaf_count=8969 392 4960 1188 1446 754 2820 729 2481 92 16853 1801 5010 3269 7000 259 1095 706 3593 977 1174 620 1242 1394 287 3132 392 69 549 233 309
internal_value=0.000298801 -0.0273174 0.0309777 0.0338962 -0.0124373 -0.0383596 -0.0227688 -0.00199903 0.00555556 0.038979 -0.0275459 0.0226994 0.0304878 -0.042642 0.0123543 -0.0261516 0.0241028 0.0169944 0.004914 -0.0284806 0.00856175 -0.00838534 -0.0321136 -0.000230415 -0.0116572 -0.00867896 -0.00726817 -0.0136557 0.00261538 -0.0243981
internal_weight=73795 38836 34959 31359 16543 22293 8314 8229 3600 21568 6324 9791 4715 15969 2659 7229 1031 4781 1628 6134 3101 5128 4523 1085 3886 651 798 941 325 1703
internal_count=73795 38836 34959 31359 16543 22293 8314 8229 3600 21568 6324 9791 4715 15969 2659 7229 1031 4781 1628 6134 3101 5128 4523 1085 3886 651 798 941 325 1703
cat_boundaries=0 1 2 3
cat_threshold=512 512 256
is_linear=0
shrinkage=0.05


Tree=2
num_leaves=31
num_cat=5
split_feature=0 1 1 8 8 0 1 8 8 0 1 0 2 7 1 3 7 7 0 1 1 0 1 9 1 1 2 2 1 2
split_gain=23356.4 2468.76 1066.47 688.521 618.793 392.466 263.022 177.017 176.109 152.027 147.451 139.1 128.83 117.601 90.4845 81.3475 78.6688 77.9549 75.0309 72.5696 72.5226 72.4722 66.0041 60.1967 59.6306 55.222 54.3856 54.2941 69.6285 51.4131
threshold=69.00500000000001 63.685000000000009 45.915000000000006 92.601000000000042 53.396000000000008 60.005000000000003 97.095000000000013 28.606999999999992 94.180999999999997 73.77500000000002 91.020000000000024 100.40500000000002 0 73.00500000000001 93.27000000000001 1 75.410000000000011 78.205000000000013 48.705000000000005 22.225000000000005 6.8850000000000007 227.03500000000003 3.0900000000000003 12.12958353916035 -0.99499999999999988 148.85500000000005 2 3 118.53500000000001 4
decision_type=2 2 2 2 2 2 2 2 2 2 2 2 1 2 2 1 2 2 2 2 2 2 2 2 2 2 1 1 2 1
left_child=1 5 8 9 6 7 13 20 -2 -4 29 26 21 18 16 -11 -13 25 -3 -7 -1 22 -10 -24 -9 -8 -5 28 -12 -6
right_child=2 4 3 11 10 19 17 24 12 15 27 14 -14 -15 -16 -17 -18 -19 -20 -21 -22 -23 23 -25 -26 -27 -28 -29 -30 -31
leaf_value=-3.392392405986786 -0.24440598678588898 -1.4641674380302427 0.35357772111892705 1.2568137979507448 -0.45552246809005725 -0.33039240360260042 -0.56032366895675667 -2.1918511543273924 3.6587684993743901 0.55164250373840318 0.40998259639739987 1.2847327184677129 -0.015399751663208151 -0.74122240781784043 1.8383136606216433 1.0218824529647834 1.9375387620925908 0.79294634342193582 -0.95114740133285525 -0.20169497585296625 -3.1674099016189574 9.8800996685028082 1.2641000652313232 -0.31955616188049307 -1.0473923654556274 0.73102520656585745 1.246313843727112 0.12998259639740015 1.0847576246261597 -0.16412225484847981
leaf_weight=6471 1639 5133 1384 1895 723 1354 834 684 261 2397 1126 1077 902 1321 7514 6425 6157 356 1683 1138 6200 381 104 368 6380 75 4696 1498 188 3431
leaf_count=6471 1639 5133 1384 1895 723 1354 834 684 261 2397 1126 1077 902 1321 7514 6425 6157 356 1683 1138 6200 381 104 368 6380 75 4696 1498 188 3431
internal_value=-4.26858e-05 -0.0269063 0.0294119 0.0323744 -0.0121701 -0.0377581 -0.0205382 -0.0401191 0.00384405 0.0216931 -0.000875682 0.037483 0.0137401 -0.0238356 0.0401817 0.0241102 0.0361902 0.000671937 -0.0264818 -0.019061 -0.0436548 0.025 0.01603 0.00487288 -0.0337769 -0.00709571 0.0314444 0.00796586 0.0153323 -0.00686086
internal_weight=73795 38595 35200 31545 16368 22227 9402 19735 3655 10206 6966 21339 2016 8137 14748 8822 7234 1265 6816 2492 12671 1114 733 472 7064 909 6591 2812 1314 4154
internal_count=73795 38595 35200 31545 16368 22227 9402 19735 3655 10206 6966 21339 2016 8137 14748 8822 7234 1265 6816 2492 12671 1114 733 472 7064 909 6591 2812 1314 4154
cat_boundaries=0 1 2 3 4 5
cat_threshold=56 512 40 106 8
is_linear=0
shrinkage=0.05


Tree=3
num_leaves=31
num_cat=7
split_feature=0 1 1 8 8 0 1 1 0 0 7 7 1 2 3 3 2 0 1 2 3 1 0 1 8 1 1 2 7 1
split_gain=21863 2200.43 1022.87 624.751 624.447 385.636 227.965 190.559 184.881 181.028 143.74 141.011 116.653 112.823 96.8867 93.1475 91.928 89.7254 86.0772 83.0398 82.7477 80.9703 79.7756 72.3938 72.5167 71.3735 70.1667 65.2974 64.8013 63.1262
threshold=69.00500000000001 63.685000000000009 59.060000000000009 49.000000000000021 92.601000000000042 30.005000000000006 97.095000000000013 91.020000000000024 73.77500000000002 65.00500000000001 76.00500000000001 64.00500000000001 12.055000000000001 0 1 2 3 100.83500000000002 45.915000000000006 4 5 3.0900000000000003 98.895000000000024 53.210000000000008 166.09900000000007 26.985000000000003 104.12500000000001 6 79.50500000000001 -1.0999999999999999
decision_type=2 2 2 2 2 2 2 2 2 2 2 2 2 1 1 1 1 2 2 1 1 2 2 2 2 2 2 1 2 2
left_child=1 5 11 6 8 12 16 28 27 29 20 18 -1 21 19 25 -3 -12 22 -10 -6 -13 -2 24 -23 -15 -19 -4 -5 -7
right_child=2 3 4 7 10 9 -8 -9 14 -11 17 13 -14 15 -16 -17 -18 26 -20 -21 -22 23 -24 -25 -26 -27 -28 -29 -30 -31
leaf_value=-3.2047727790117264 -0.54806086483001692 -0.97858503353595694 0.40905371034145405 -0.4064413114786149 1.0379669148921971 -1.8477998458862304 -0.017113529610634261 0.26448346657752991 -1.0059395451545718 -0.081766405534743569 1.1906618239879614 4.759330364322663 -2.9145394132137299 -0.1309608549118039 0.98331347298622163 -0.36485835208892825 -1.2239576479673386 1.827661717176438 0.74406045484542815 0.64206040906906103 1.2129169042110448 -0.014629764080047637 0.82993901309967066 1.3628268725872041 9.0145779953956602 1.11922008562088 2.0083982522487647 -0.12932120954990367 0.015271330237388626 -0.76792528738975541
leaf_weight=7323 734 3527 612 3456 989 690 1083 3046 154 1020 5572 546 6072 416 6120 580 3696 7857 432 2041 2099 582 562 255 237 714 4035 663 1560 7122
leaf_count=7323 734 3527 612 3456 989 690 1083 3046 154 1020 5572 546 6072 416 6120 580 3696 7857 432 2041 2099 582 562 255 237 714 4035 663 1560 7122
internal_value=7.92737e-05 -0.0259114 0.0285767 -0.011999 0.0320682 -0.0361565 -0.0216229 -0.00208385 0.0215328 -0.0280457 0.0369842 0.00776987 -0.0415043 0.0137838 0.0242514 0.0047093 -0.0248304 0.0387426 -0.00381944 0.0152392 0.0270402 0.0231902 -0.0102623 0.0153631 0.00811966 0.0130973 0.0411958 0.00380392 -0.00807416 -0.0306324
internal_weight=73795 38595 35200 16368 30142 22227 8306 8062 9590 8832 20552 5058 13395 3330 8315 1710 7223 17464 1728 2195 3088 1620 1296 1074 819 1130 11892 1275 5016 7812
internal_count=73795 38595 35200 16368 30142 22227 8306 8062 9590 8832 20552 5058 13395 3330 8315 1710 7223 17464 1728 2195 3088 1620 1296 1074 819 1130 11892 1275 5016 7812
cat_boundaries=0 1 2 3 4 5 6 7
cat_threshold=41 512 256 89 32 512 26
is_linear=0
shrinkage=0.05


Tree=4
num_leaves=31
num_cat=7
split_feature=0 1 1 0 8 0 8 1 1 1 6 8 1 2 1 3 2 0 2 7 1 8 2 2 7 0 3 1 1 1
split_gain=19777 2091.11 1048.36 803.65 602.416 379.215 246.855 214.32 180.674 179.231 134.8 103.734 114.49 98.4518 81.6139 81.492 96.796 81.3726 131.678 75.6968 64.1324 62.7651 62.419 61.9291 59.8403 59.5539 94.8127 59.0756 58.8715 62.0641
threshold=69.00500000000001 63.685000000000009 59.060000000000009 79.50500000000001 49.000000000000021 60.005000000000003 100.78300000000003 97.095000000000013 1.7500000000000002 91.020000000000024 93.00500000000001 -0.99899999999997713 2.0950000000000002 0 45.915000000000006 1 2 74.905000000000015 3 76.00500000000001 65.610000000000014 75.742000000000033 4 5 100.52500000000002 312.51500000000004 6 104.12500000000001 66.555000000000021 95.425000000000026
decision_type=2 2 2 2 2 2 2 2 2 2 2 2 2 1 2 1 1 2 1 2 2 2 1 1 2 2 1 2 2 2
left_child=1 5 10 17 7 8 15 13 -1 21 14 -10 -13 28 -2 16 -5 18 -4 -8 -20 -6 -14 -9 -11 26 -12 -21 -3 -30
right_child=2 4 3 6 9 -7 19 23 11 24 25 12 22 -15 -16 -17 -18 -19 20 27 -22 -23 -24 -25 -26 -27 -28 -29 29 -31
leaf_value=-3.00908033313334 -0.2284543213129048 -3.0600297734439366 -0.018352353250980259 -0.62405252101421382 -0.3454086309850215 -0.2504765190529824 1.2483500694870955 -1.0367580362355711 -3.1948124415993693 0.20125929324865341 1.0963932358980182 0.45981532148539978 -0.90531332603693004 -1.1627597655689716 0.57634546515941598 1.1351650572896006 1.0124575412034986 0.17097276958227142 -0.28653142932653425 1.6866898871541025 0.82164779933691046 0.25332013879418441 -1.1793123729348183 0.30415470273137118 0.87738429324865386 10.462297333426477 -0.013898275876045574 1.7574782328248029 -0.83802972289919786 -1.3620270696818837
leaf_weight=6364 1419 544 636 157 4218 2492 1728 413 4895 2439 1568 82 843 3696 539 8318 2558 2198 98 8407 1721 798 7551 670 607 300 1232 4321 2824 159
leaf_count=6364 1419 544 636 157 4218 2492 1728 413 4895 2439 1568 82 843 3696 539 8318 2558 2198 98 8407 1721 798 7551 670 607 300 1232 4321 2824 159
internal_value=-0.000365201 -0.0250849 0.0267386 0.0302734 -0.0115225 -0.0350722 0.0337616 -0.0209728 -0.037393 -0.00178616 0.00567418 -0.0340924 -0.0307456 -0.0240828 -0.00459653 0.0281292 0.0206077 0.0111648 0.00490835 0.0380603 0.0117277 -0.00759569 -0.03132 -0.00023084 0.0077807 0.0121613 0.00989286 0.0393935 -0.0179107 -0.0152028
internal_weight=73795 38595 35200 30142 16368 22227 25489 8306 19735 8062 5058 13371 8476 7223 1958 11033 2715 4653 2455 14456 1819 5016 8394 1083 3046 3100 2800 12728 3527 2983
internal_count=73795 38595 35200 30142 16368 22227 25489 8306 19735 8062 5058 13371 8476 7223 1958 11033 2715 4653 2455 14456 1819 5016 8394 1083 3046 3100 2800 12728 3527 2983
cat_boundaries=0 1 2 3 4 5 6 7
cat_threshold=89 512 32 65 16 20 256
is_linear=0
shrinkage=0.05


Tree=5
num_leaves=31
num_cat=2
split_feature=0 8 0 10 7 8 3 8 0 10 10 10 10 0 7 0 3 7 8 0 10 0 10 8 10 0 10 0 10 7
split_gain=18565.7 1613.64 879.158 602.162 396.388 356.975 203.038 161.56 154.759 152.601 151.35 126.165 123.966 118.529 79.5046 75.6601 86.0693 74.5468 66.0195 64.7029 63.6711 75.5406 63.4324 62.6754 61.2107 59.1374 58.2002 56.6696 53.9937 109.991
threshold=69.00500000000001 48.85499999999999 79.50500000000001 -10.499999999999996 79.50500000000001 8.6049999999999986 0 100.45700000000001 60.005000000000003 -48.044999999999995 -41.574999999999989 39.14500000000001 29.125000000000004 48.125000000000007 30.005000000000006 53.990000000000002 1 87.690000000000012 64.393000000000043 74.905000000000015 -15.934999999999997 66.00500000000001 43.525000000000013 69.004000000000033 -10.094999999999997 98.895000000000024 27.405000000000005 65.00500000000001 64.995000000000019 40.005000000000003
decision_type=2 2 2 2 2 2 1 2 2 2 2 2 2 2 2 2 1 2 2 2 2 2 2 2 2 2 2 2 2 2
left_child=1 5 12 10 6 14 22 11 -5 17 23 -6 19 -11 -1 18 -17 -7 -12 24 21 -18 -4 -3 -2 -24 -10 -28 -8 -30
right_child=2 3 4 8 7 9 28 -9 26 13 15 -13 -14 -15 -16 16 20 -19 -20 -21 -22 -23 25 -25 -26 -27 27 -29 29 -31
leaf_value=-3.0397935251337294 0.78345142457067996 0.10019632858622103 0.6083346794021125 -0.66706332426488402 1.0677068074768783 -0.94542847622662696 1.0955128061360129 1.5749444726532702 -0.098689938373922814 -1.2521784747165441 -0.8592491628591411 0.67349838285833608 -0.20741510678172048 -0.63775429571419984 -2.7927935222727065 -0.49327874265819815 0.20019632858622105 0.19587974005299813 -0.0025530902495972899 0.15494881685554918 0.34414621270984402 -0.12980359511983366 -0.50923510552287043 0.68351507858622118 -0.0024345830005408687 0.86513803992927052 -0.32788747293508042 -0.065154259305356996 -0.87952769252419505 1.3720457838928704
leaf_weight=10054 1395 2085 1571 3522 6499 2272 4240 14323 1196 6731 2013 750 779 1845 2267 731 1965 361 612 2311 287 304 268 905 1270 891 793 652 142 761
leaf_count=10054 1395 2085 1571 3522 6499 2272 4240 14323 1196 6731 2013 750 779 1845 2267 731 1965 361 612 2311 287 304 268 905 1270 891 793 652 142 761
internal_value=-0.000558981 -0.0245097 0.0257017 -0.0117325 0.0291951 -0.0326902 0.0195923 0.0326998 -0.0237466 -0.0262334 -0.00341496 0.0266175 0.00782798 -0.029466 -0.0385642 -0.00805142 -0.00299665 -0.0157045 -0.014381 0.0107315 0.0013302 -0.00147642 0.00857143 0.00575251 0.00542214 -0.000301984 -0.0145967 -0.0213495 0.0254423 0.0143411
internal_weight=73795 38595 35200 15065 29445 23530 7873 21572 6163 11209 8902 7249 5755 8576 12321 5912 3287 2633 2625 4976 2556 2269 2730 2990 2665 1159 2641 1445 5143 903
internal_count=73795 38595 35200 15065 29445 23530 7873 21572 6163 11209 8902 7249 5755 8576 12321 5912 3287 2633 2625 4976 2556 2269 2730 2990 2665 1159 2641 1445 5143 903
cat_boundaries=0 1 2
cat_threshold=512 512
is_linear=0
shrinkage=0.05


Tree=6
num_leaves=31
num_cat=6
split_feature=0 1 1 0 8 0 1 8 8 1 2 6 0 2 2 1 1 1 2 1 1 7 0 1 1 2 1 2 1 10
split_gain=17483.8 1832.66 916.317 720.546 548.582 338.926 233.721 231.983 178.714 141.407 116.671 115.201 72.9564 124.149 72.2563 71.1283 70.6257 70.2002 63.9537 59.1299 78.0776 58.557 56.6267 53.935 53.5958 53.3685 51.7126 49.8016 78.7414 49.5181
threshold=69.00500000000001 63.685000000000009 59.060000000000009 79.50500000000001 50.611000000000011 60.005000000000003 97.095000000000013 100.78300000000003 -0.99899999999997713 89.805000000000021 0 93.00500000000001 74.905000000000015 1 2 103.05000000000001 8.8250000000000011 45.915000000000006 3 84.795000000000016 81.695000000000007 73.00500000000001 312.51500000000004 95.425000000000026 92.990000000000023 4 -2.7999999999999994 5 118.53500000000001 -23.964999999999993
decision_type=2 2 2 2 2 2 2 2 2 2 1 2 2 1 1 2 2 2 1 2 2 2 2 2 2 1 2 1 2 2
left_child=1 5 11 12 6 8 10 19 16 25 21 17 13 -4 -10 -9 -1 -2 -8 20 -5 23 -13 24 29 -6 -16 28 -11 -3
right_child=2 4 3 7 9 -7 18 15 14 27 -12 22 -14 -15 26 -17 -18 -19 -20 -21 -22 -23 -24 -25 -26 -27 -28 -29 -30 -31
leaf_value=-3.1109404649338126 -0.22606997204142801 -0.89101938931235625 -0.041607154229075155 1.0250214640512767 -0.090394804454912159 -0.22155831945357962 -0.90614865720669968 1.4826970353975597 -0.99280093290773908 0.33718634431022992 -1.0327867962689183 0.81198913051943444 0.15467669026037997 0.55334613992294668 -2.5843198487091068 1.4853570670333207 -2.909912848838657 0.49275255159464426 0.42030565243919188 1.0143214671030343 0.1824177623265385 -0.285016621654124 9.8705801775605089 -2.5376570028242313 0.90314304209859708 -0.50881638369736992 -1.1700510483638344 0.066020574656909761 1.0022227889742312 -0.20586658092848964
leaf_weight=4580 1419 2349 636 3605 2716 2492 441 9537 3538 1292 3871 2800 2198 1819 1001 4919 3575 539 713 6929 499 661 300 136 116 1805 7041 1663 190 415
leaf_count=4580 1419 2349 636 3605 2716 2492 441 9537 3538 1292 3871 2800 2198 1819 1001 4919 3575 539 713 6929 499 661 300 136 116 1805 7041 1663 190 415
internal_value=-0.000432956 -0.0236753 0.0250511 0.0283558 -0.0109787 -0.0330251 -0.0195702 0.0316588 -0.0352192 -0.00122619 -0.0227742 0.00535785 0.0102622 0.00433809 -0.0312263 0.035826 -0.040889 -0.00413687 0.00138648 0.0261987 0.0214425 -0.0162327 0.0113548 -0.0192308 -0.0177778 -0.00689007 -0.0339295 0.00691574 0.0135389 -0.0191751
internal_weight=73795 38595 35200 30142 16368 22227 8702 25489 19735 7666 7548 5058 4653 2455 11580 14456 8155 1958 1154 11033 4104 3677 3100 3016 2880 4521 8042 3145 1482 2764
internal_count=73795 38595 35200 30142 16368 22227 8702 25489 19735 7666 7548 5058 4653 2455 11580 14456 8155 1958 1154 11033 4104 3677 3100 3016 2880 4521 8042 3145 1482 2764
cat_boundaries=0 1 2 3 4 5 6
cat_threshold=89 65 28 20 114 106
is_linear=0
shrinkage=0.05


Tree=7
num_leaves=31
num_cat=10
split_feature=6 1 1 6 8 6 1 8 1 3 2 1 2 6 1 7 2 3 2 10 2 8 1 2 7 2 2 7 7 1
split_gain=16126.1 1748.91 893.191 689.246 525.653 320.77 234.033 219.979 137.58 124.95 139.868 118.097 114.665 105.94 98.6838 93.2836 82.8812 80.1929 93.4161 72.0379 67.8673 66.3801 65.7095 62.329 60.0474 57.8325 57.7875 57.1228 56.9484 56.4419
threshold=69.00500000000001 63.685000000000009 59.060000000000009 79.50500000000001 49.000000000000021 46.465000000000011 97.095000000000013 100.593 91.020000000000024 0 1 10.855000000000002 2 65.00500000000001 43.905000000000008 97.300000000000026 3 4 5 1.3049999999999964 6 -0.99899999999997713 -1.0000000180025095e-35 7 73.00500000000001 8 9 55.005000000000003 105.20500000000001 8.8250000000000011
decision_type=2 2 2 2 2 2 2 2 2 1 1 2 1 2 2 2 1 1 1 2 1 2 2 1 2 1 1 2 2 2
left_child=1 5 9 23 6 11 12 17 19 14 22 21 24 25 16 -9 -2 18 -5 -6 28 -1 -11 -4 -3 27 -8 -7 -16 -24
right_child=2 4 3 7 8 13 26 15 -10 10 -12 -13 -14 -15 20 -17 -18 -19 -20 -21 -22 -23 29 -25 -26 -27 -28 -29 -30 -31
leaf_value=-2.9575434396367224 1.1213940699769205 -0.80024086810562456 0.62744288626493949 -1.006107749018802 -0.27179907227194244 -0.11567922278048215 -0.83378309411796436 1.0105891068701311 0.21932719494139832 -0.76316138029886571 -0.41516441386522873 -1.9289618080778297 -0.99794674272298733 -0.050818630367410127 -0.11364316433538449 1.5345623972507285 -0.091315842159410465 0.96677042136629088 0.83043076436419916 0.93838429935415213 1.0261925151485671 -2.0161677968305454 9.2855806192245804 0.10964254073681375 -0.10763503566637241 -0.53358918708179714 0.39929036981723204 -0.48162647832672367 1.5265707673273559 0.60718097252545677
leaf_weight=4712 700 2958 1482 151 4624 508 434 3587 2940 42 1505 7738 3784 1019 239 11402 951 7938 2427 213 591 3109 266 3175 674 4498 716 667 58 687
leaf_count=4712 700 2958 1482 151 4624 508 434 3587 2940 42 1505 7738 3784 1019 239 11402 951 7938 2427 213 591 3109 266 3175 674 4498 716 667 58 687
internal_value=-0.000453283 -0.0227756 0.0240206 0.027276 -0.0103561 -0.0318974 -0.0189003 0.0305058 -0.000945095 0.00453463 -0.0034 -0.0358346 -0.0221548 -0.0227436 0.0123474 0.0343952 0.00511811 0.024962 0.0173002 -0.00612983 0.0257883 -0.0401675 0.0110945 0.00958772 -0.0156507 -0.0254098 0.00208696 -0.0150633 0.00537459 0.0139035
internal_weight=73795 38594 35201 30162 16343 22251 8566 25505 7777 5039 2500 15559 7416 6692 2539 14989 1651 10516 2578 4837 888 7821 995 4657 3632 5673 1150 1175 297 953
internal_count=73795 38594 35201 30162 16343 22251 8566 25505 7777 5039 2500 15559 7416 6692 2539 14989 1651 10516 2578 4837 888 7821 995 4657 3632 5673 1150 1175 297 953
cat_boundaries=0 1 2 3 4 5 6 7 8 9 10
cat_threshold=256 72 89 48 512 32 26 24 24 20
is_linear=0
shrinkage=0.05


Tree=8
num_leaves=31
num_cat=3
split_feature=0 1 1 8 0 0 1 0 1 2 8 1 6 0 1 2 1 9 1 1 8 0 2 1 1 1 1 10 1 1
split_gain=15339.1 1818.52 840.437 600.491 438.972 390.284 205.419 202.726 147.228 123.461 118.56 111.07 98.6784 87.1631 78.757 74.6096 75.5956 63.941 63.6891 67.4155 61.628 58.2954 55.8823 51.2288 47.6441 46.4743 58.1 44.3938 41.7477 41.4816
threshold=73.77500000000002 63.685000000000009 59.060000000000009 50.611000000000011 24.780000000000005 96.50500000000001 97.095000000000013 65.00500000000001 14.555000000000001 0 100.593 91.020000000000024 93.00500000000001 78.205000000000013 116.90500000000002 1 118.53500000000001 10.682178348884372 95.425000000000026 89.995000000000019 69.457000000000022 312.51500000000004 2 -2.7999999999999994 71.205000000000013 148.85500000000005 141.09000000000003 -7.5249999999999995 64.200000000000017 64.200000000000017
decision_type=2 2 2 2 2 2 2 2 2 1 2 2 2 2 2 1 2 2 2 2 2 2 1 2 2 2 2 2 2 2
left_child=1 4 12 6 8 13 9 23 -1 18 -7 20 -2 -4 -12 16 -13 -10 19 -3 24 -14 -8 -6 -5 26 -24 -19 -15 -11
right_child=2 3 5 11 7 10 22 -9 17 29 14 15 21 28 -16 -17 -18 27 -20 -21 -22 -23 25 -25 -26 -27 -28 -29 -30 -31
leaf_value=-2.609160263846229 -0.12050087013349327 -0.69530354516940707 0.11713575846515951 0.20439302945676163 -1.6572072608941326 0.92649186733899214 -0.74005458555129211 -0.04945554058470876 -2.4979884062684063 0.6496849434559846 1.2707953340974818 0.40586098778221924 0.7088584786979184 -0.12581537687770991 2.119059666785414 -0.00021097589681104978 0.97146704642876436 -2.3114884112751963 -1.2270217095204332 0.79099796391652655 0.20139310735631355 9.3209814651836371 0.26482580555000296 -0.6251662984833608 -0.36980460071221022 0.79113176272539298 -3.4319558958706469 0.54823024734368564 0.61618468762574219 -0.93525002013719394
leaf_weight=6834 1473 3243 2782 720 700 6251 448 1574 1566 87 11617 1374 2779 189 2264 1884 242 3418 161 316 1754 300 598 8623 3019 74 44 66 5569 3826
leaf_count=6834 1473 3243 2782 720 700 6251 448 1574 1566 87 11617 1374 2779 189 2264 1884 242 3418 161 316 1754 300 598 8623 3019 74 44 66 5569 3826
internal_value=-0.000596924 -0.0212258 0.0245937 -0.00924677 -0.0305803 0.0277623 -0.0185347 -0.0233321 -0.0372265 -0.0215184 0.0315617 -0.000161237 0.00463533 0.0188056 0.0341366 0.0068 0.0146371 -0.0307525 -0.0148525 -0.013501 -0.00459676 0.00972718 0.00103093 -0.0261343 -0.00822412 0.00964187 0.00545171 -0.0269805 0.0223168 -0.0277466
internal_weight=73795 40571 33224 17790 22781 28672 8797 10897 11884 7633 20132 8993 4552 8540 13881 3500 1616 5050 3720 3559 5493 3079 1164 9323 3739 716 642 3484 5758 3913
internal_count=73795 40571 33224 17790 22781 28672 8797 10897 11884 7633 20132 8993 4552 8540 13881 3500 1616 5050 3720 3559 5493 3079 1164 9323 3739 716 642 3484 5758 3913
cat_boundaries=0 1 2 3
cat_threshold=89 106 20
is_linear=0
shrinkage=0.05


Tree=9
num_leaves=31
num_cat=10
split_feature=0 8 8 7 7 7 7 3 0 0 8 2 7 3 0 7 2 0 3 2 9 8 2 9 7 2 7 2 3 7
split_gain=14546.5 1554.22 512.617 398.428 305.59 167.258 154.85 148.831 126.271 113.63 92.6552 88.3154 88.1805 86.0338 78.5573 72.8261 72.6916 74.8112 69.6443 56.3905 54.9672 54.3502 53.5525 50.7414 50.4802 59.0615 50.3602 50.2311 45.7664 44.9241
threshold=73.77500000000002 48.85499999999999 92.601000000000042 -1.0000000180025095e-35 66.50500000000001 71.905000000000015 76.00500000000001 0 49.855000000000011 100.97500000000001 60.502000000000002 1 8.0550000000000015 2 76.585000000000022 77.50500000000001 3 -0.98999999999999988 4 5 46.325257760208466 8.6049999999999986 6 13.640533958174677 54.865000000000002 7 38.945000000000007 8 9 99.995000000000019
decision_type=2 2 2 2 2 2 2 1 2 2 2 1 2 1 2 2 1 2 1 1 2 2 1 2 2 1 2 1 1 2
left_child=1 3 7 21 12 8 13 15 16 11 -6 -8 -3 22 19 -2 17 -5 -14 23 -11 27 -4 -9 25 -20 -21 -1 -23 -22
right_child=2 4 6 5 10 -7 9 14 -10 20 -12 -13 18 -15 -16 -17 -18 -19 24 26 29 28 -24 -25 -26 -27 -28 -29 -30 -31
leaf_value=-2.4737082477868544 -0.04168130467316971 -0.75972128786106696 -0.56005407868998847 -2.6456400055522353 -0.45586740940389636 -0.64227159196186534 0.86841728160143683 -0.01157141109915898 -0.28039719955160863 1.3763213576318223 0.068695123956563006 0.84741249418372178 -0.41109380269121232 0.8948229781913839 0.68837533117414229 0.521402538849987 -1.214564024185405 -0.55244423929283648 0.17840282666624888 -0.083319083436154531 0.59179435809542724 -0.44771291212490322 0.79376302450714287 0.5838832817481191 -0.3525426292026424 -0.30102580317843319 1.1063215996718172 -2.8763149202796718 -1.8505628343050788 2.6209080341859021
leaf_weight=3026 1770 1121 173 608 2455 1979 1754 199 1111 10761 4995 4193 3430 2555 5872 1257 8963 1621 1004 116 303 135 1186 161 1941 1912 683 4600 1670 2241
leaf_count=3026 1770 1121 173 608 2455 1979 1754 199 1111 10761 4995 4193 3430 2555 5872 1257 8963 1621 1004 116 303 135 1186 161 1941 1912 683 4600 1670 2241
internal_value=-0.000599634 -0.0206884 0.0239315 -0.0289398 -0.00908174 -0.0236732 0.0280238 0.0145059 -0.0258433 0.029867 -0.00151678 0.0241214 -0.0150723 0.0189576 0.0184967 0.00523621 -0.0274392 -0.019004 -0.0132919 0.00660052 0.0324352 -0.0369155 0.00879323 -0.00972973 -0.00943998 -0.00528121 0.0139061 -0.0387621 -0.0291136 0.0258255
internal_weight=73795 40571 33224 23713 16858 14282 23166 10058 12303 19252 7450 5947 9408 3914 7031 3027 11192 2229 8287 1159 13305 9431 1359 360 4857 2916 799 7626 1805 2544
internal_count=73795 40571 33224 23713 16858 14282 23166 10058 12303 19252 7450 5947 9408 3914 7031 3027 11192 2229 8287 1159 13305 9431 1359 360 4857 2916 799 7626 1805 2544
cat_boundaries=0 1 2 3 4 5 6 7 8 9 10
cat_threshold=512 40 512 24 512 65 32 25 54 128
is_linear=0
shrinkage=0.05


Tree=10
num_leaves=31
num_cat=3
split_feature=0 1 0 1 8 0 1 1 1 0 7 0 6 1 7 9 1 1 1 1 3 1 0 0 3 7 1 3 7 10
split_gain=13682.9 1496.67 825.385 487.279 479.864 379.919 309.613 203.774 187.52 149.001 130.784 125.292 101.036 97.1393 82.1999 75.1366 71.9459 63.8182 63.4579 63.3325 62.7504 62.4131 81.0369 61.3388 69.4068 55.9817 48.4195 48.0745 47.9731 47.2775
threshold=69.00500000000001 63.685000000000009 94.980000000000004 59.060000000000009 50.611000000000011 24.780000000000005 45.915000000000006 97.095000000000013 14.555000000000001 78.205000000000013 97.300000000000026 65.00500000000001 100.97500000000001 91.020000000000024 73.00500000000001 10.682178348884372 85.320000000000007 103.05000000000001 95.425000000000026 -2.7999999999999994 0 87.035000000000011 48.705000000000005 312.51500000000004 1 78.205000000000013 148.85500000000005 2 64.00500000000001 -24.385000000000002
decision_type=2 2 2 2 2 2 2 2 2 2 2 2 2 2 2 2 2 2 2 2 1 2 2 2 1 2 2 1 2 2
left_child=1 5 6 23 7 8 28 14 -1 -8 20 19 -12 -6 18 -10 -11 -14 21 -7 -5 22 -3 24 -4 26 -9 -18 -2 -24
right_child=2 4 3 10 13 11 9 25 15 16 12 -13 17 -15 -16 -17 27 -19 -20 -21 -22 -23 29 -25 -26 -27 -28 -29 -30 -31
leaf_value=-2.3882925560253079 -0.51331068915929989 -1.2350283625048424 0.80504186947453604 0.80906203234277285 -0.19778790639008792 -1.5363608334563725 0.08600536710033567 -0.4948955789735493 -2.231773243517281 0.32364192917239054 0.83568641233337648 -0.042804806630151404 1.4614781223671565 0.20569491726534964 -0.47900531244911382 -2.0722285783220937 0.91584051281226386 1.6040053050090202 -1.3409560753227006 -0.55668207869339958 0.85198987041128404 -0.63932436958667438 -0.64743283662516804 8.7335326062444434 -0.16974773486049488 0.69977752581658992 0.73608510809424887 0.53084274101169771 -0.022549726157355822 -0.28254233384544991
leaf_weight=6834 688 4221 1582 1944 4704 700 4556 769 1566 2241 3766 1020 6633 2962 1147 3484 393 3661 211 8623 4702 811 575 303 1271 314 71 2787 673 583
leaf_count=6834 688 4221 1582 1944 4704 700 4556 769 1566 2241 3766 1020 6633 2962 1147 3484 393 3661 211 8623 4702 811 575 303 1271 314 71 2787 673 583
internal_value=-0.000712108 -0.0212735 0.0218324 0.02711 -0.00979961 -0.0297229 0.010725 -0.017835 -0.0358213 0.0137767 0.0298995 -0.0227158 0.0326316 -0.00067832 -0.0208267 -0.0285149 0.0193783 0.0351953 -0.0230355 -0.0245361 0.0241198 -0.0221163 -0.0240658 0.00880862 0.00653698 0.0017331 -0.005 0.0242138 -0.0116458 -0.0123489
internal_weight=73795 38595 35200 23862 16368 22227 11338 8702 11884 9977 20706 10343 14060 7666 7548 5050 5421 10294 6401 9323 6646 6190 5379 3156 2853 1154 840 3180 1361 1158
internal_count=73795 38595 35200 23862 16368 22227 11338 8702 11884 9977 20706 10343 14060 7666 7548 5050 5421 10294 6401 9323 6646 6190 5379 3156 2853 1154 840 3180 1361 1158
cat_boundaries=0 1 2 3
cat_threshold=512 256 128
is_linear=0
shrinkage=0.05


Tree=11
num_leaves=31
num_cat=2
split_feature=0 1 0 1 8 8 1 0 1 7 0 1 6 1 7 1 9 3 1 0 10 1 1 3 6 7 10 1 1 7
split_gain=12909.2 1385.13 811.514 467.22 465.021 439.134 268.296 199.869 191.713 128.534 125.899 107.221 99.1044 87.6972 80.5356 77.9567 77.4492 72.1953 68.2244 62.5787 61.8238 61.0594 54.1324 51.7689 50.712 50.3662 50.1536 48.4195 47.9605 50.6448
threshold=69.00500000000001 63.685000000000009 94.980000000000004 59.060000000000009 50.611000000000011 -0.99899999999997713 45.915000000000006 60.505000000000003 97.095000000000013 97.300000000000026 78.205000000000013 10.855000000000002 100.97500000000001 89.805000000000021 52.615000000000002 -2.7999999999999994 10.56411828963912 0 103.05000000000001 48.705000000000005 40.005000000000003 85.320000000000007 89.315000000000012 1 53.085000000000008 78.205000000000013 27.405000000000005 148.85500000000005 37.780000000000008 112.14500000000002
decision_type=2 2 2 2 2 2 2 2 2 2 2 2 2 2 2 2 2 1 2 2 2 2 2 1 2 2 2 2 2 2
left_child=1 5 6 -4 8 11 -2 15 14 17 -8 -1 -11 22 19 -7 -13 -5 -14 -3 28 -12 -6 -23 -22 27 -9 -10 -17 -30
right_child=2 4 3 9 13 7 10 26 25 12 21 16 18 -15 -16 20 -18 -19 -20 -21 24 23 -24 -25 -26 -27 -28 -29 29 -31
leaf_value=-2.4159778806473255 -0.2076559966821826 -1.1178974802066102 0.76478977600080933 0.76860893072563385 -0.17479767605028301 -2.0094652269594913 0.081705098745318602 0.017378383725851165 -0.47015080002487153 0.79390209171670778 0.30745983271377075 -2.2786845851561139 1.3884042162487988 0.18672478527525557 -0.48585813584855164 -1.0885667637093392 -2.3965743582018755 0.80939037689071969 1.523805039758569 -0.61506119479390942 -0.0059320716457712313 0.87004848717165051 -0.74808507000540347 0.50430060396111287 -0.31599021732474031 0.66478864952576056 -0.13465723510905078 0.69928085268953666 -0.66216741006667135 0.021196965570882045
leaf_weight=4799 1361 4379 3156 1944 4419 1048 4556 723 769 3766 2241 1084 6633 3145 2012 4834 2366 4702 3661 1157 433 393 102 2787 962 314 1588 71 4213 177
leaf_count=4799 1361 4379 3156 1944 4419 1048 4556 723 769 3766 2241 1084 6633 3145 2012 4834 2366 4702 3661 1157 433 393 102 2787 962 314 1588 71 4213 177
internal_value=-0.000750051 -0.0207216 0.0211477 0.0263809 -0.00968353 -0.02885 0.0101341 -0.0234511 -0.0175937 0.0291123 0.0129748 -0.0379985 0.0318208 -0.000704409 -0.0204955 -0.0261121 -0.0312754 0.0233825 0.0343598 -0.0236091 -0.0248281 0.018124 -0.00516479 0.0225786 -0.0150179 0.00138648 -0.0100173 -0.005 -0.0263118 -0.0225285
internal_weight=73795 38595 35200 23862 16368 22227 11338 13978 8702 20706 9977 8249 14060 7666 7548 11667 3450 6646 10294 5536 10619 5421 4521 3180 1395 1154 2311 840 9224 4390
internal_count=73795 38595 35200 23862 16368 22227 11338 13978 8702 20706 9977 8249 14060 7666 7548 11667 3450 6646 10294 5536 10619 5421 4521 3180 1395 1154 2311 840 9224 4390
cat_boundaries=0 1 2
cat_threshold=512 128
is_linear=0
shrinkage=0.05


Tree=12
num_leaves=31
num_cat=6
split_feature=0 8 0 1 1 1 8 1 7 0 2 6 7 1 0 0 1 1 1 7 3 0 2 2 2 1 1 0 2 0
split_gain=12109.4 1374.35 841.152 568.032 450.143 285.132 245.353 222.426 132.939 129.601 122.726 96.8426 92.7105 86.5221 80.5645 79.3223 78.5527 76.2414 113.866 75.7161 75.4101 69.2704 63.834 61.8125 59.492 54.5263 83.5329 65.246 54.801 54.3241
threshold=69.00500000000001 15.490999999999984 94.980000000000004 91.020000000000024 59.060000000000009 33.030000000000008 63.71900000000003 45.915000000000006 97.300000000000026 78.205000000000013 0 100.97500000000001 105.20500000000001 41.570000000000007 -5.4149999999999991 23.675000000000004 103.05000000000001 67.110000000000014 68.970000000000013 100.40500000000002 1 52.005000000000003 2 3 4 50.855000000000011 45.915000000000006 140.36500000000004 5 60.505000000000003
decision_type=2 2 2 2 2 2 2 2 2 2 1 2 2 2 2 2 2 2 2 2 1 2 1 1 1 2 2 2 1 2
left_child=1 5 7 6 24 15 10 -2 20 -9 -3 22 14 -8 -7 -1 -13 29 -19 23 -6 -20 -10 -5 -4 26 27 -26 -27 -12
right_child=2 3 4 19 8 12 13 9 11 -11 17 16 -14 -15 -16 -17 -18 18 21 -21 -22 -23 -24 -25 25 28 -28 -29 -30 -31
leaf_value=-2.1647456398149445 -0.19727319684807371 -0.30001910881571381 1.1767939385573818 0.52734619853309328 0.73017848418935216 -2.8217102582313127 -0.24263020880955752 0.077619843808052744 0.75420698713087264 0.46019792116843167 -0.68433521034728928 1.3189840054363586 0.87763977457508346 -0.0057160681520411318 -1.1398332160055646 -1.2496508767827228 1.4476147877706405 0.35393950305671851 -0.60255266019320008 0.62881731262069784 0.76892085804618382 -0.42151054625177448 0.7450922294009289 -0.14606418119506301 0.96090795740401591 0.44217469941163262 1.6806913983114449 -0.7984946919976551 -0.42486859678337724 -0.1049895991194667
leaf_weight=7171 1361 1899 1606 651 1944 3352 1457 4556 1154 5421 8117 6633 81 2706 2242 787 3661 316 3738 778 4702 1522 2612 3001 687 151 190 395 127 777
leaf_count=7171 1361 1899 1606 651 1944 3352 1457 4556 1154 5421 8117 6633 81 2706 2242 787 3661 316 3738 778 4702 1522 2612 3001 687 151 190 395 127 777
internal_value=-0.000549495 -0.0198925 0.0206591 -0.0129196 0.0259869 -0.0326597 -0.0164231 0.00944611 0.028668 0.0120327 -0.0191795 0.0314225 -0.0240969 -0.00558491 -0.0248659 -0.038766 0.0339324 -0.0207459 -0.0161765 0.00331828 0.0228408 -0.0179278 0.0245619 0.000301205 0.0083967 0.00134615 0.00573899 0.000369686 -0.018705 -0.0236339
internal_weight=73795 38595 35200 24962 23862 13633 20532 11338 20706 9977 16369 14060 5675 4163 5594 7958 10294 14470 5576 4430 6646 5260 3766 3652 3156 1550 1272 1082 278 8894
internal_count=73795 38595 35200 24962 23862 13633 20532 11338 20706 9977 16369 14060 5675 4163 5594 7958 10294 14470 5576 4430 6646 5260 3766 3652 3156 1550 1272 1082 278 8894
cat_boundaries=0 1 2 3 4 5 6
cat_threshold=16 512 40 40 44 3
is_linear=0
shrinkage=0.05


Tree=13
num_leaves=31
num_cat=3
split_feature=0 8 0 7 7 3 8 7 10 0 10 10 6 0 10 10 3 0 10 10 0 8 9 8 3 9 10 10 9 10
split_gain=11604.6 1343.89 860.314 403.782 260.728 204.946 156.863 153.627 111.271 113.319 101.437 98.4627 95.7399 80.0077 96.8608 86.423 66.9848 62.0945 65.7128 61.2389 60.7629 59.7892 57.9441 53.1719 50.9002 49.9765 48.6686 47.844 47.0427 45.9037
threshold=69.00500000000001 14.009000000000004 84.225000000000009 76.00500000000001 92.195000000000007 0 63.71900000000003 1.0000000180025095e-35 -45.68 46.465000000000011 -1.2950000000000015 31.990000000000002 49.855000000000011 100.97500000000001 10.459999999999999 39.14500000000001 1 11.490000000000002 -10.094999999999997 -18.059999999999995 -7.9949999999999992 47.988 83.191397605405271 60.502000000000002 2 3.5885229728370969 75.065000000000012 -92.765000000000001 17.485939125571683 27.865000000000006
decision_type=2 2 2 2 2 1 2 2 2 2 2 2 2 2 2 2 1 2 2 2 2 2 2 2 1 2 2 2 2 2
left_child=1 7 11 6 5 26 8 -1 12 -10 23 -2 28 15 -15 24 21 18 20 -7 -9 -11 -16 -5 -6 -14 -4 -22 -3 -26
right_child=2 3 4 10 13 19 -8 17 9 16 -12 -13 25 14 22 -17 -18 -19 -20 -21 27 -23 -24 -25 29 -27 -28 -29 -30 -31
leaf_value=-2.1869417046242119 0.19267008379782669 -0.69263170973218569 0.54994963429662325 -0.22517684087330567 0.71703163762174149 0.92590041442557125 -0.090792862913120595 -2.3680466146344963 -0.85350319549120968 -0.30971285296421169 -0.40132244978531895 -0.12638565643578303 0.62123887527679933 0.7887363428840829 1.3901618994654563 0.3854775075569819 -0.36691023600223399 -0.75313581665305795 -1.8760292437068795 0.7277267853059094 0.68197687160633569 -0.38855599018860087 1.3198942383340786 0.21515652180829647 0.5848215357069656 0.10577619423413652 -0.31573843984802646 -1.5636524927200615 -0.091849169723552754 0.71852761274289423
leaf_weight=8271 7016 1625 2502 2483 1692 344 3108 2031 5582 792 1090 947 119 2416 9090 395 4267 954 879 6055 86 2678 781 2360 2897 316 598 1154 800 467
leaf_count=8271 7016 1625 2502 2483 1692 344 3108 2031 5582 792 1090 947 119 2416 9090 395 4267 954 879 6055 86 2678 781 2360 2897 316 598 1154 800 467
internal_value=-0.000622671 -0.0195582 0.0201392 -0.0127637 0.0243658 0.0176808 -0.0162726 -0.0323701 -0.018249 -0.0201704 -0.00135682 0.00568253 -0.0093007 0.0279457 0.0301823 0.0229041 -0.0162531 -0.0255486 -0.0281928 0.0227926 -0.0249312 -0.0214121 0.027986 0.00174479 0.0246638 0.0122989 0.00712903 -0.0162097 -0.0131753 0.0211058
internal_weight=73795 38595 35200 25220 27237 9499 19287 13375 16179 13319 5933 7963 2860 17738 12287 5451 7737 5104 4150 6399 3271 3470 9871 4843 5056 435 3100 1240 2425 3364
internal_count=73795 38595 35200 25220 27237 9499 19287 13375 16179 13319 5933 7963 2860 17738 12287 5451 7737 5104 4150 6399 3271 3470 9871 4843 5056 435 3100 1240 2425 3364
cat_boundaries=0 1 2 3
cat_threshold=512 512 128
is_linear=0
shrinkage=0.05


Tree=14
num_leaves=31
num_cat=6
split_feature=0 8 0 1 1 1 8 1 1 2 0 0 8 0 3 3 2 1 1 0 2 1 9 1 9 1 1 0 2 1
split_gain=11101.7 1347.62 828.387 537.513 408.317 297.434 248.24 194.735 128.409 127.204 91.3503 88.5691 87.7657 83.4651 82.3867 82.2475 71.4435 69.2583 108.533 62.3799 61.6586 68.6544 60.5052 60.1898 59.9331 59.3503 58.0532 57.5996 57.3666 54.5263
threshold=69.00500000000001 14.009000000000004 94.980000000000004 91.020000000000024 59.060000000000009 14.555000000000001 63.71900000000003 78.265000000000015 123.105 0 84.225000000000009 -1.0000000180025095e-35 100.593 27.005000000000006 1 2 3 67.110000000000014 68.970000000000013 52.005000000000003 4 71.205000000000013 22.169104367878003 41.570000000000007 10.56411828963912 118.53500000000001 71.790000000000006 60.505000000000003 5 50.855000000000011
decision_type=2 2 2 2 2 2 2 2 2 1 2 2 2 2 1 1 1 2 2 2 1 2 2 2 2 2 2 2 1 2
left_child=1 5 7 6 28 13 9 15 12 -3 -9 24 14 -1 -6 16 -2 27 -19 20 -20 -22 -5 -8 -7 -13 -16 -11 -4 -30
right_child=2 3 4 22 8 11 23 10 -10 17 -12 25 -14 -15 26 -17 -18 18 19 -21 21 -23 -24 -25 -26 -27 -28 -29 29 -31
leaf_value=-1.9867249396662023 0.66356268778026584 -0.26559035386549751 1.0862005077680756 -0.0030937793979962437 0.68267603086180706 -2.003296311810574 -0.21720857051661754 0.35505595134211493 1.8771372490551146 -0.62674550215254432 0.45425966936773676 -1.0991355587860032 0.89548831621696368 -1.1212980585654251 0.69408847587857925 -0.11632645587026219 -0.037776969350965577 0.35458803970399444 -0.30833677054257369 -0.37825719243026196 -0.75301487956064228 -0.54201642087893576 0.47413516696301561 -0.0013180045824967125 -2.2366840012440443 0.91195844022336425 0.64713472807714467 -0.081394607363381513 0.508666093443637 -0.33076430368735643
leaf_weight=6033 1319 1918 1606 3204 1917 1276 1457 4602 2165 8295 2269 1892 12191 508 955 2352 796 319 849 1524 372 2560 1237 2706 3606 60 3478 779 1272 278
leaf_count=6033 1319 1918 1606 3204 1917 1276 1457 4602 2165 8295 2269 1892 12191 508 955 2352 796 319 849 1524 372 2560 1237 2706 3606 60 3478 779 1272 278
internal_value=-0.000571177 -0.0190919 0.0197358 -0.0122879 0.025023 -0.0319215 -0.0156624 0.00860822 0.0275765 -0.0183979 0.0138917 -0.0246269 0.0262311 -0.0395429 0.0214646 0.000481307 0.00763593 -0.0199755 -0.0156294 -0.0173327 -0.0207749 -0.0242012 0.00350146 -0.00474417 -0.0282261 -0.015625 0.0177194 -0.0226912 0.00826996 0.00134615
internal_weight=73795 38595 35200 25220 23862 13375 20779 11338 20706 16616 6871 6834 18541 6541 6350 4467 2115 14698 5624 5305 3781 2932 4441 4163 4882 1952 4433 9074 3156 1550
internal_count=73795 38595 35200 25220 23862 13375 20779 11338 20706 16616 6871 6834 18541 6541 6350 4467 2115 14698 5624 5305 3781 2932 4441 4163 4882 1952 4433 9074 3156 1550
cat_boundaries=0 1 2 3 4 5 6
cat_threshold=16 128 256 53 9 44
is_linear=0
shrinkage=0.05


Tree=15
num_leaves=31
num_cat=6
split_feature=0 8 0 1 1 1 8 7 10 2 7 3 0 0 1 3 0 2 0 10 1 10 0 2 1 7 7 2 1 1
split_gain=10324.8 1225.16 870.85 491.683 433.511 304.293 245.156 158.317 143.317 124.006 92.3192 90.7547 85.0145 81.1942 99.4686 80.0836 75.6432 75.065 69.3369 72.7808 86.9832 64.0238 60.8724 57.8573 55.574 54.6588 52.7913 50.5228 55.8218 62.289
threshold=69.00500000000001 14.009000000000004 90.510000000000005 91.020000000000024 59.060000000000009 14.555000000000001 63.71900000000003 97.300000000000026 29.125000000000004 0 1.0000000180025095e-35 1 83.135000000000005 100.97500000000001 103.05000000000001 2 27.005000000000006 3 49.005000000000003 -12.040000000000003 73.670000000000016 106.53500000000001 -10.914999999999997 4 118.53500000000001 100.52500000000002 55.005000000000003 5 50.855000000000011 48.065000000000005
decision_type=2 2 2 2 2 2 2 2 2 1 2 1 2 2 2 1 2 1 2 2 2 2 2 1 2 2 2 1 2 2
left_child=1 5 8 6 27 16 9 11 12 -3 -7 17 -2 15 -15 -9 -1 -6 21 20 -20 26 -12 -5 -24 -25 -11 -4 29 -29
right_child=2 3 4 23 7 10 -8 13 -10 18 22 -13 -14 14 -16 -17 -18 -19 19 -21 -22 -23 24 25 -26 -27 -28 28 -30 -31
leaf_value=-1.887388692682892 0.15607880711585126 -0.252310836172223 0.87920356390506105 0.5056732207219945 -0.28202230274410595 -2.0225011606880559 -0.075392791241633728 0.64704625419756356 -0.14874954248832425 -0.65270694876738244 -2.1399236030235911 0.65896247575680533 0.36165464732639202 1.1602523096392083 1.2435270148216504 0.56686016090393565 -1.0652331556371539 0.66353685540590357 0.37300513789782175 -0.27774244106874807 -0.46225338146648626 0.093327953289994173 -0.90865957892713711 -0.13872885386705464 0.75902725074743749 0.75392534441075942 -0.56519143869930699 -0.17266280887712249 -0.34329317424586137 1.5882857247337701
leaf_weight=6033 6518 1918 2002 857 363 3648 4163 1494 1355 6787 1324 5164 2268 6814 3731 2377 508 1807 436 3620 1502 48 1811 3017 51 567 2305 968 217 122
leaf_count=6033 6518 1918 2002 857 363 3648 4163 1494 1355 6787 1324 5164 2268 6814 3731 2377 508 1807 436 3620 1502 48 1811 3017 51 567 2305 968 217 122
internal_value=-0.00060912 -0.01847 0.0189744 -0.0119826 0.0239774 -0.0307028 -0.0152101 0.0265425 0.00661177 -0.0179285 -0.0233246 0.0205618 0.00894605 0.0295852 0.0318587 0.0233919 -0.0384116 0.0119816 -0.019486 -0.0150954 -0.00727554 -0.0221772 -0.0171061 0.00311867 -0.0112782 0.000306066 -0.0224813 0.00711695 -0.000569476 0.0040367
internal_weight=73795 38595 35200 25220 25059 13375 20779 21750 10141 16616 6834 7334 8786 14416 10545 3871 6541 2170 14698 5558 1938 9140 3186 4441 1862 3584 9092 3309 1307 1090
internal_count=73795 38595 35200 25220 25059 13375 20779 21750 10141 16616 6834 7334 8786 14416 10545 3871 6541 2170 14698 5558 1938 9140 3186 4441 1862 3584 9092 3309 1307 1090
cat_boundaries=0 1 2 3 4 5 6
cat_threshold=16 512 128 40 40 45
is_linear=0
shrinkage=0.05


Tree=16
num_leaves=31
num_cat=10
split_feature=8 6 6 7 6 7 3 7 2 10 10 10 7 2 6 3 2 8 2 3 2 3 6 10 9 2 10 10 6 9
split_gain=9545.38 1085.26 908.048 239.993 213.368 175.504 169.127 158.892 118.41 97.0919 85.7836 78.2625 110.134 68.8973 68.6514 66.9373 68.2367 66.3359 57.5144 56.3707 53.2271 52.6068 51.2345 51.1838 47.0943 46.0732 67.4571 44.9663 42.5375 41.3267
threshold=64.800000000000026 84.225000000000009 9.5650000000000031 92.195000000000007 55.005000000000003 1.0000000180025095e-35 0 51.310000000000009 1 18.705000000000002 -31.934999999999999 -44.794999999999995 99.645000000000024 2 100.97500000000001 3 4 -9.4939999999999785 5 6 7 8 47.005000000000003 -51.104999999999997 80.540710053611306 9 43.525000000000013 10.459999999999999 100.12500000000001 2.6555433023148458
decision_type=2 2 2 2 2 2 1 2 1 2 2 2 2 1 2 1 1 2 1 1 1 1 2 2 2 1 2 2 2 2
left_child=2 15 5 6 7 20 18 8 22 -6 -9 12 17 21 25 -2 24 -7 -3 -11 -1 -5 23 -4 -17 -15 28 -16 -27 -8
right_child=1 3 4 13 9 11 29 10 -10 19 -12 -13 -14 14 27 16 -18 -19 -20 -21 -22 -23 -24 -25 -26 26 -28 -29 -30 -31
leaf_value=-1.7186404257942389 -0.067496272031976376 -0.47502949875993966 0.32205123234268207 0.61469394148768552 -0.011021890434187755 -2.398530907920303 -0.029901357317923784 -0.1707489061269076 -0.57473375642896229 0.98182852210433402 -0.46232290094826461 -1.5945147740299292 0.97115999232920203 0.59969378889979486 0.60811722241100341 0.39713846785266366 0.011826486853687613 -0.70795319960775283 0.5058601194471315 -0.23969529436361159 -2.0729764768582144 1.3333412319422988 0.14980886328874909 -0.4735893125625914 1.1051138091237973 0.61618991660883826 -0.27347900488954835 1.1332011628538425 0.38824918589874929 0.62478351842086477
leaf_weight=3152 3382 277 228 1061 4074 1377 143 2804 7701 91 4159 2380 152 1364 2339 3448 3950 1172 2568 2552 4729 2146 583 989 167 2379 203 7790 565 5870
leaf_count=3152 3382 277 228 1061 4074 1377 143 2804 7701 91 4159 2380 152 1364 2339 3448 3950 1172 2568 2552 4729 2146 583 989 167 2379 203 7790 565 5870
internal_value=-0.000464124 0.0171545 -0.0188183 0.0225894 -0.012892 -0.0294168 0.0158614 -0.015956 -0.020161 -0.00538187 -0.0102183 -0.0221708 -0.0163458 0.0259287 0.0243891 0.00389604 0.00651024 -0.0188113 0.00581722 -0.0128453 -0.0340883 0.032779 -0.00845304 -0.0143385 0.0114621 0.0192751 0.0157586 0.0266907 0.017731 0.0206137
internal_weight=73795 37652 36143 26705 23181 12962 8858 16464 9501 6717 6963 5081 2701 17847 14640 10947 7565 2549 2845 2643 7881 3207 1800 1217 3615 4511 3147 10129 2944 6013
internal_count=73795 37652 36143 26705 23181 12962 8858 16464 9501 6717 6963 5081 2701 17847 14640 10947 7565 2549 2845 2643 7881 3207 1800 1217 3615 4511 3147 10129 2944 6013
cat_boundaries=0 1 2 3 4 5 6 7 8 9 10
cat_threshold=512 24 8 512 56 32 128 54 128 36
is_linear=0
shrinkage=0.05


Tree=17
num_leaves=31
num_cat=9
split_feature=0 8 0 1 1 1 8 1 7 2 0 0 1 2 0 0 2 1 3 2 2 0 9 7 2 1 0 3 9 2
split_gain=8983.16 939.102 851.915 412.493 392.713 259.099 200.223 153.378 142.782 106.408 96.2691 95.0482 80.1393 78.964 74.8242 72.6415 70.978 66.0192 64.7111 64.1758 60.5235 57.2242 56.6123 55.6655 62.7287 55.5206 55.2511 53.9595 53.3566 53.1136
threshold=69.00500000000001 15.490999999999984 94.980000000000004 91.020000000000024 59.060000000000009 33.030000000000008 56.982000000000006 44.925000000000004 95.675000000000026 0 84.225000000000009 -5.4149999999999991 110.03000000000002 1 56.225000000000001 100.83500000000002 2 43.225000000000001 3 4 5 65.00500000000001 50.6478354805541 64.00500000000001 6 69.720000000000013 95.675000000000026 7 4.4389949956310177 8
decision_type=2 2 2 2 2 2 2 2 2 1 2 2 2 1 2 2 1 2 1 1 1 2 2 2 1 2 2 1 2 1
left_child=1 5 7 6 29 16 9 23 18 -3 -9 22 13 -10 -11 -15 -1 21 19 -6 -5 -8 -7 -2 -25 -12 -14 -27 -29 -4
right_child=2 3 4 20 8 11 17 10 12 14 25 -13 26 15 -16 -17 -18 -19 -20 -21 -22 -23 -24 24 -26 27 -28 28 -30 -31
leaf_value=-1.8632272711813478 -0.51061131603787835 -0.36017105281426826 0.92126324258730397 0.46053263629326158 -0.2701792334823338 -2.2861702670244308 -0.26042337239563057 0.15698071495865593 0.64956245285980363 -0.51328209443991712 -0.059576041396275065 -0.78640320399924946 -0.37694997226798538 0.57551523235183666 -0.15203039611879421 0.82657977334365784 -1.5120317523970419 -0.066495961029160361 0.59519675237576664 0.63154723253853506 -0.0015617783305302169 -0.003221807211829031 -1.7096174077753823 -0.36611659307339511 0.18340875853723518 0.67529520358408923 1.1146836024834528 -0.00011523998364708632 0.355843365445768 0.078395056720743386
leaf_weight=3490 675 1489 1606 853 301 2447 1978 6960 3377 11378 432 2299 33 1926 1037 5717 4468 3981 4536 1554 3577 669 929 194 470 332 3262 356 1919 1550
leaf_count=3490 675 1489 1606 853 301 2447 1978 6960 3377 11378 432 2299 33 1926 1037 5717 4468 3981 4536 1554 3577 669 929 194 470 332 3262 356 1919 1550
internal_value=-0.000164645 -0.0168247 0.0181023 -0.0110608 0.0234641 -0.0273784 -0.0140464 0.00681778 0.0259683 -0.0174554 0.00894589 -0.0192159 0.0287426 0.0266969 -0.0189658 0.0237358 -0.0331993 -0.00689499 0.0197543 0.0118868 0.00277652 -0.0130147 -0.0245557 -0.00907394 0.00120482 0.0163705 0.0355842 0.0191216 0.0163736 0.00703422
internal_weight=73795 38595 35200 24962 23862 13633 20532 11338 20706 13904 9999 5675 14315 11020 12415 7643 7958 6628 6391 1855 4430 2647 3376 1339 664 3039 3295 2607 2275 3156
internal_count=73795 38595 35200 24962 23862 13633 20532 11338 20706 13904 9999 5675 14315 11020 12415 7643 7958 6628 6391 1855 4430 2647 3376 1339 664 3039 3295 2607 2275 3156
cat_boundaries=0 1 2 3 4 5 6 7 8 9
cat_threshold=16 40 72 512 40 40 68 128 44
is_linear=0
shrinkage=0.05


Tree=18
num_leaves=31
num_cat=10
split_feature=0 0 1 1 0 1 1 0 1 2 2 0 2 0 2 3 0 2 0 3 2 0 6 1 1 2 1 3 0 6
split_gain=8346.73 1216.36 527.367 429.714 352.039 220.447 189.066 129.289 128.11 114.429 106.418 100.531 99.7094 84.0475 83.0261 85.832 73.6056 95.3352 69.7047 67.4598 102.65 66.9558 65.4896 65.1216 60.5758 91.3326 60.3056 59.5497 58.1191 57.9102
threshold=77.015000000000015 48.705000000000005 59.060000000000009 37.780000000000008 95.675000000000026 82.240000000000023 97.095000000000013 18.610000000000003 110.03000000000002 0 1 61.655000000000008 2 76.585000000000022 3 4 61.085000000000008 5 44.605000000000011 6 7 312.51500000000004 71.905000000000015 91.020000000000024 84.330000000000013 8 124.97000000000001 9 296.96000000000009 100.83500000000002
decision_type=2 2 2 2 2 2 2 2 2 1 1 2 1 2 1 1 2 1 2 1 1 2 2 2 2 1 2 1 2 2
left_child=1 3 19 7 27 11 22 10 14 -10 -1 12 -3 16 15 28 23 -18 -9 -2 21 -21 -5 24 -7 -26 -19 -4 -6 -16
right_child=2 5 4 6 8 13 -8 18 9 -11 -12 -13 -14 -15 29 -17 17 26 -20 20 -22 -23 -24 -25 25 -27 -28 -29 -30 -31
leaf_value=-1.8102921258767808 0.43035925253028684 -0.065677931275344298 0.64752402036374412 -0.6969245364294594 0.48439812813074501 0.31565727438881447 0.17968281312338769 -0.8172517772988126 0.42021062283584532 1.1057932373244321 -1.5248848342971761 -0.044041377040378651 -0.3381293301790862 -0.10971186716359044 0.5571396590082166 0.56462800429935889 0.5969078194656533 0.20017955144122868 0.13744180539490358 -0.013683544368878843 -0.90507613812566778 8.1911591563803512 0.46546146913313396 0.12544602201914543 0.52721848130230808 -0.53519058068997016 -0.39191549052837971 0.2835519539286892 11.142629023660039 0.74011685445809694
leaf_weight=3581 2045 1663 513 11080 559 312 1066 2577 910 3285 4896 5501 5259 366 3602 3984 1279 1744 302 1352 570 196 268 2187 171 823 194 5522 122 7866
leaf_count=3581 2045 1663 513 11080 559 312 1066 2577 910 3285 4896 5501 5259 366 3602 3984 1279 1744 302 1352 570 196 268 2187 171 823 194 5522 122 7866
internal_value=-0.00015516 -0.0142793 0.019865 -0.0218721 0.0224766 -0.00502333 -0.0154422 -0.028901 0.0256248 0.0334088 -0.0320101 -0.00903566 -0.0130454 0.00202092 0.0236007 0.0293369 0.00329359 0.00875039 -0.0197464 0.00332693 -0.00292729 0.00378691 -0.0173335 -0.00173204 -0.0105666 -0.0165996 0.00169405 0.0118724 0.0129956 0.0212232
internal_weight=73795 43269 30526 23770 26363 19499 12414 11356 20328 4195 8477 12423 6922 7076 16133 4665 6710 3217 2879 4163 2118 1548 11348 3493 1306 994 1938 6035 681 11468
internal_count=73795 43269 30526 23770 26363 19499 12414 11356 20328 4195 8477 12423 6922 7076 16133 4665 6710 3217 2879 4163 2118 1548 11348 3493 1306 994 1938 6035 681 11468
cat_boundaries=0 1 2 3 4 5 6 7 8 9 10
cat_threshold=34 72 24 40 512 42 256 105 64 128
is_linear=0
shrinkage=0.05


Tree=19
num_leaves=31
num_cat=8
split_feature=0 0 7 1 1 1 7 0 0 1 7 1 2 0 3 2 2 0 1 1 0 7 2 1 2 0 3 2 1 7
split_gain=7871.81 875.747 830.06 464.33 308.252 215.233 154.913 119.309 117.893 106.213 96.4114 90.7322 103.675 88.0818 87.5849 82.6376 81.7774 84.7113 75.0753 72.7521 68.0854 64.9938 64.2287 63.4318 58.8943 57.893 72.5023 80.0824 56.7712 55.8722
threshold=69.00500000000001 86.135000000000005 38.945000000000007 59.060000000000009 89.805000000000021 14.555000000000001 95.675000000000026 55.005000000000003 27.005000000000006 42.235000000000007 100.31500000000001 79.995000000000019 0 60.505000000000003 1 2 3 100.97500000000001 26.510000000000002 85.000000000000014 22.505000000000006 -2.7649999999999992 4 104.12500000000001 5 312.51500000000004 6 7 41.570000000000007 49.005000000000003
decision_type=2 2 2 2 2 2 2 2 2 2 2 2 1 2 1 1 1 2 2 2 2 2 1 2 1 2 1 1 2 2
left_child=2 28 5 25 7 8 14 9 15 18 29 12 -7 21 24 -1 -8 -18 20 -13 -4 -14 -6 -19 -5 26 -3 -28 -2 -11
right_child=1 3 4 6 22 11 16 -9 -10 10 -12 19 13 -15 -16 -17 17 23 -20 -21 -22 -23 -24 -25 -26 -27 27 -29 -30 -31
leaf_value=-1.2161986205117457 -0.16229275478620908 0.4526006971105247 -1.4863005157984612 -0.46198896855436333 0.485722328697554 -1.2760513165872303 0.58244171754850527 -0.090797181799654333 -0.70036415381816297 -0.40370927500040993 0.16072499199222748 0.30476210997868203 -1.8687440126409705 0.020662064889971535 0.53592752193062199 -1.7777775119535475 0.49232772005204739 0.89491075285736243 -0.77269108651835061 -0.38833977365287781 -0.23757208756019477 -0.61252135697833099 -0.0068768083613491631 1.0728552380466856 0.45863217768970588 7.6917240593693919 0.88700014007003603 -0.53408965332201752 0.13733416529130338 -0.36171502776178421
leaf_weight=1132 995 1715 1073 139 832 1349 4225 4635 1739 2670 965 468 2940 474 5537 5000 3145 4890 1205 1153 1326 3604 3645 2880 2165 303 661 858 7687 4385
leaf_count=1132 995 1715 1073 139 832 1349 4225 4635 1739 2670 965 468 2940 474 5537 5000 3145 4890 1205 1153 1326 3604 3645 2880 2165 303 661 858 7687 4385
internal_value=-6.84328e-05 0.0170313 -0.0156639 0.0215439 -0.00885899 -0.0235651 0.0241395 -0.0120579 -0.0297484 -0.0147626 -0.0115586 -0.0186924 -0.02079 -0.0182555 0.0184351 -0.0330072 0.0270938 0.0246911 -0.0218923 -0.00786552 -0.0167778 -0.0197891 0.00275854 0.0275161 0.0102431 0.00467911 0.00272109 -0.00523371 0.0032481 -0.0135861
internal_weight=73795 35200 38595 26518 20736 17859 22981 16259 7871 11624 8020 9988 8367 7018 7841 6132 15140 10915 3604 1621 2399 6544 4477 7770 2304 3537 3234 1519 8682 7055
internal_count=73795 35200 38595 26518 20736 17859 22981 16259 7871 11624 8020 9988 8367 7018 7841 6132 15140 10915 3604 1621 2399 6544 4477 7770 2304 3537 3234 1519 8682 7055
cat_boundaries=0 1 2 3 4 5 6 7 8
cat_threshold=64 512 18 40 40 32 256 72
is_linear=0
shrinkage=0.05


Tree=20
num_leaves=31
num_cat=14
split_feature=0 8 7 7 3 0 3 2 0 2 7 3 2 0 2 3 9 9 2 0 2 3 9 3 0 8 0 2 3 7
split_gain=7226.48 1213.32 347.892 259.922 203.048 148.136 141.029 103.915 101.038 85.6093 82.0621 63.6215 62.9693 57.1804 59.4694 57.1739 56.1464 52.4836 51.8563 63.888 50.8378 50.0758 65.1885 47.4248 47.3581 48.3154 46.6293 45.5137 43.3681 40.7687
threshold=83.135000000000005 49.000000000000021 -0.98999999999999988 92.195000000000007 0 49.005000000000003 1 2 63.005000000000003 3 80.00500000000001 4 5 88.205000000000013 6 7 152.23509779657294 80.540710053611306 8 -0.98999999999999988 9 10 11.054322139661773 11 53.990000000000002 69.457000000000022 100.97500000000001 12 13 80.00500000000001
decision_type=2 2 2 2 1 2 1 1 2 1 2 1 1 2 1 1 2 2 1 2 1 1 2 1 2 2 2 1 1 2
left_child=1 2 9 6 8 10 27 11 29 15 18 -5 17 20 -15 -1 26 -6 19 -4 -8 22 -11 -18 25 -14 28 -2 -9 -3
right_child=3 4 5 7 12 -7 13 16 -10 21 -12 -13 24 14 -16 -17 23 -19 -20 -21 -22 -23 -24 -25 -26 -27 -28 -29 -30 -31
leaf_value=-0.63462974256378379 -0.43888952012664506 -0.26821864483258617 -1.7150760383557762 0.49359263583050539 0.094745116015892708 -0.046767769976124113 0.52857083046254516 0.4948776433073121 -0.060775686498515571 -2.3603812485453441 -0.32792829367753068 1.1732411764126405 -0.46181096339619576 0.39980216264548718 0.52280831168133235 -1.4214152813997476 0.0087447238719043693 0.95613488399765956 -0.63271850500802462 -0.18058783388933541 -0.026791470348364755 -1.7238886745028426 1.1748150865791913 -1.3255031079808015 -0.0010308505262029755 0.16190080538208529 0.85977020781210034 0.39655502921524716 0.40942991317234673 -0.23173195588963724
leaf_weight=796 332 3071 647 1077 5567 1780 472 1279 3165 125 1409 2156 1202 1585 4186 1811 21 216 10251 1853 359 6548 129 74 5942 460 9919 2834 3417 1112
leaf_count=796 332 3071 647 1077 5567 1780 472 1279 3165 125 1409 2156 1202 1585 4186 1811 21 216 10251 1853 359 6548 129 74 5942 460 9919 2834 3417 1112
internal_value=8.3339e-05 -0.0120497 -0.0193874 0.0202609 -0.00307933 -0.0148871 0.0136978 0.0238338 -0.00975776 -0.0270114 -0.016596 0.0320845 0.00058639 0.0178582 0.019624 -0.0190103 0.0219837 0.00451407 -0.0178613 -0.0112351 0.00559567 -0.0300059 -0.00826772 -0.0163158 -0.00240347 -0.00986763 0.0222477 0.00502211 0.0181431 -0.0148578
internal_weight=73795 46084 25349 27711 20735 15940 9768 17943 7348 9409 14160 3233 13387 6602 5771 2607 14710 5783 12751 2500 831 6802 254 95 7604 1662 14615 3166 4696 4183
internal_count=73795 46084 25349 27711 20735 15940 9768 17943 7348 9409 14160 3233 13387 6602 5771 2607 14710 5783 12751 2500 831 6802 254 95 7604 1662 14615 3166 4696 4183
cat_boundaries=0 1 2 3 4 5 6 7 8 9 10 11 12 13 14
cat_threshold=512 512 8 22 128 25 6 256 24 23 128 128 32 128
is_linear=0
shrinkage=0.05


Tree=21
num_leaves=31
num_cat=8
split_feature=8 6 7 1 1 6 1 7 2 2 1 3 3 3 10 1 1 10 1 10 1 6 3 2 7 8 8 1 1 2
split_gain=6509.43 806.993 696.323 389.073 356.413 212.928 137.806 124.067 97.2567 93.8707 89.8195 84.0777 64.7953 64.274 64.2547 76.7329 63.5064 63.3949 61.7788 81.303 57.2561 54.5 66.7075 61.6883 48.8276 46.7941 45.8295 52.068 43.0869 67.5208
threshold=68.599000000000018 86.135000000000005 -1.0000000180025095e-35 91.020000000000024 59.060000000000009 49.005000000000003 79.995000000000019 98.895000000000024 0 1 124.07500000000002 2 3 4 -12.534999999999995 31.230000000000004 42.235000000000007 7.4149999999999991 -2.7999999999999994 62.435000000000009 4.7750000000000012 312.51500000000004 5 6 100.31500000000001 130.00000000000006 -5.1709999999999994 43.225000000000001 108.21000000000002 7
decision_type=2 2 2 2 2 2 2 2 1 1 2 1 1 1 2 2 2 2 2 2 2 2 1 1 2 2 2 2 2 1
left_child=2 16 6 5 21 18 8 10 12 -9 11 -6 -1 -7 15 -10 -2 -18 19 -4 -16 22 -3 -24 -20 28 -26 -28 -11 -30
right_child=1 4 3 -5 7 13 -8 9 14 25 -12 -13 -14 -15 20 -17 17 -19 24 -21 -22 -23 23 -25 26 -27 27 -29 29 -31
leaf_value=-1.3313607046993554 -0.1268410164498775 0.40949916659638108 -1.2755955823953675 0.1349002597145173 0.35081019123966756 -0.19229830201927811 -0.031764469319717041 0.55350271755727121 -2.2148714984002495 0.44166119889694005 0.58040092902873475 0.48209131527428539 -0.15033791927882589 -0.049741073113764148 -1.1636942159821684 -1.6961626575878281 0.10910659395526708 0.49431668468722878 -0.49856248263071845 0.17408424475356946 -0.86322185210405156 7.2484757975802907 0.11096385702194311 -0.60280521964221245 0.87524862775555512 2.204510756590996 -1.368819499259907 0.049223858043296792 0.079207408420420941 0.44109977460302052
leaf_weight=1177 1429 1637 771 4407 2117 3979 567 4008 2860 5193 518 5317 608 5111 1705 2352 6973 1417 12606 98 1142 303 877 540 64 3714 161 448 364 1332
leaf_count=1177 1429 1637 771 4407 2117 3979 567 4008 2860 5193 518 5317 608 5111 1705 2352 6973 1417 12606 98 1142 303 877 540 64 3714 161 448 364 1332
internal_value=-5.62369e-05 0.0152676 -0.0144471 -0.0102966 0.019892 -0.0128798 -0.0254683 0.0221535 -0.0268488 0.0248888 0.0171278 0.015725 -0.015961 -0.00690869 -0.0292044 -0.0325403 0.00306039 0.0047199 -0.0167161 -0.0296318 -0.0231999 0.00469169 0.002685 -0.00525759 -0.0158709 0.0223264 -0.00274889 -0.00697865 0.0199085 0.0268278
internal_weight=73795 35739 38056 27645 25920 23238 10411 22563 9844 14611 7952 7434 1785 9090 8059 5212 9819 8390 14148 869 2847 3357 3054 1417 13279 10603 673 609 6889 1696
internal_count=73795 35739 38056 27645 25920 23238 10411 22563 9844 14611 7952 7434 1785 9090 8059 5212 9819 8390 14148 869 2847 3357 3054 1417 13279 10603 673 609 6889 1696
cat_boundaries=0 1 2 3 4 5 6 7 8
cat_threshold=18 40 512 512 512 256 104 2
is_linear=0
shrinkage=0.05


Tree=22
num_leaves=31
num_cat=8
split_feature=8 8 8 1 1 1 2 8 2 3 10 2 1 1 1 10 8 5 9 8 10 1 1 9 2 1 5 2 10 1
split_gain=5827.73 648.265 522.681 325.74 300.255 158.865 144.129 105.705 82.4289 122.193 77.685 76.632 72.552 64.8646 60.8137 106.581 60.4483 59.5683 65.6671 59.7125 59.5533 76.6658 58.7464 75.5565 65.25 58.1028 65.3654 57.2797 56.1889 58.596
threshold=68.599000000000018 1.6440000000000285 91.116000000000014 91.020000000000024 61.360000000000007 79.995000000000019 0 56.982000000000006 1 2 207.86000000000004 3 42.235000000000007 116.06000000000002 -2.7999999999999994 78.475000000000023 103.73800000000004 4 72.753882485378909 -5.1709999999999994 6.1899999999999995 84.050000000000011 109.49500000000002 102.55590375317077 5 67.110000000000014 6 7 39.14500000000001 35.665000000000006
decision_type=2 2 2 2 2 2 1 2 1 1 2 1 2 2 2 2 2 1 2 2 2 2 2 2 1 2 1 1 2 2
left_child=1 5 12 7 27 6 -1 11 9 10 13 -3 -2 25 15 -13 -15 18 19 -8 21 -14 -10 24 -24 -6 -27 -4 29 -16
right_child=2 3 4 -5 8 -7 17 -9 22 -11 -12 14 20 16 28 -17 -18 -19 -20 -21 -22 -23 23 -25 -26 26 -28 -29 -30 -31
leaf_value=-1.1317248907500705 -0.097019402875142019 -0.25527300613799042 0.70999443354809699 0.13325603613257117 1.9132605507088183 -0.20666174211987159 -2.311950608637229 -0.092494392470164402 0.45783934794499076 0.46698243697258451 9.7217740476020023 -1.2580378350899182 -0.048796276158753218 -0.88591822960508404 -0.65240939879305637 0.19414017860282373 1.455296936759809 -1.4101530138825291 -0.90882334910872842 -1.2826262644759971 0.44940286314827776 0.33464848436812744 0.30449377751255685 -0.25639450769873379 0.68856418136471265 0.12592783397525054 -1.4195961753817024 -0.13698642573848688 -0.07234581175805968 -0.32005791730246858
leaf_weight=2703 1514 1900 1960 4324 213 764 3245 5125 9340 7360 174 731 1989 60 3471 102 376 2814 554 1175 2696 4680 929 64 1785 1058 83 1458 1198 9950
leaf_count=2703 1514 1900 1960 4324 213 764 3245 5125 9340 7360 174 731 1989 60 3471 102 376 2814 554 1175 2696 4680 929 64 1785 1058 83 1458 1198 9950
internal_value=-0.000289315 -0.0139058 0.01421 -0.00967688 0.01821 -0.023976 -0.0255791 -0.0120946 0.0204039 0.0239876 0.0129328 -0.013958 0.0050694 0.0098324 -0.0151209 -0.0282713 0.0266055 -0.0290459 -0.0257941 -0.0278281 0.00671116 0.00417604 0.0176121 0.0240101 0.0252763 0.00443131 -4.38212e-05 0.00444705 -0.014382 -0.0153081
internal_weight=73795 38056 35739 26801 24860 11255 10491 22477 21442 9324 1964 17352 10879 1790 15452 833 436 7788 4974 4420 9365 6669 12118 2778 2714 1354 1141 3418 14619 13421
internal_count=73795 38056 35739 26801 24860 11255 10491 22477 21442 9324 1964 17352 10879 1790 15452 833 436 7788 4974 4420 9365 6669 12118 2778 2714 1354 1141 3418 14619 13421
cat_boundaries=0 1 2 3 4 5 6 7 8
cat_threshold=34 41 512 16 1 2 1 45
is_linear=0
shrinkage=0.05


Tree=23
num_leaves=31
num_cat=5
split_feature=0 0 8 0 7 0 10 7 10 2 10 2 10 7 10 9 10 2 0 2 7 10 0 2 10 6 7 10 9 9
split_gain=5515.6 889.042 303.995 281.922 145.856 114.988 108.274 99.2118 96.4888 78.6275 76.6157 74.8127 70.3571 90.2206 69.1987 68.7026 53.1345 55.9888 52.5039 50.0158 49.2609 49.0394 48.812 45.0226 80.9701 54.7051 44.5797 49.4715 41.6705 40.7898
threshold=78.205000000000013 9.5650000000000031 60.502000000000002 91.50500000000001 1.2600000000000002 55.005000000000003 -53.694999999999986 57.005000000000003 40.925000000000011 0 -41.574999999999989 1 -8.5699999999999985 99.995000000000019 64.995000000000019 77.65271357468184 106.53500000000001 2 -10.914999999999997 3 106.48500000000001 9.4949999999999992 93.00500000000001 4 -6.0199999999999969 84.225000000000009 53.990000000000002 -11.449999999999999 20.871498309595648 0.39431977496890064
decision_type=2 2 2 2 2 2 2 2 2 1 2 1 2 2 2 2 2 1 2 1 2 2 2 1 2 2 2 2 2 2
left_child=1 4 5 8 11 6 19 14 23 21 -4 -1 13 18 -5 -11 17 -8 -6 -3 -12 -9 -23 24 -2 -26 -19 29 -21 -28
right_child=3 2 10 7 12 -7 16 9 -10 15 20 -13 -14 -15 -16 -17 -18 26 -20 28 -22 22 -24 -25 25 -27 27 -29 -30 -31
leaf_value=-1.0928115663508347 0.36132401489463251 0.32037260132488576 0.37705261177694926 0.43528141138415677 -1.6200697755353446 -0.085789328204876378 -0.27700928716654011 0.40810436372186987 -0.20156008426212502 0.4363091880863742 -0.046483682283584932 -1.4843530896494594 -1.2135486035403993 0.57004819637356874 -0.35330243404778233 -0.12481001754849004 0.18443316967268261 -0.37501867437043085 -0.77080284067489768 -0.64604958660651057 0.3080942928869867 -0.85604736610852084 0.61199664782634855 0.32505660951407622 0.057618784359510761 -0.32332199516271204 0.92058724292033889 -0.35399108830433801 0.074873873353345041 -0.3565379928658054
leaf_weight=1380 585 856 1702 2191 2103 4104 2793 3570 538 8755 8154 6556 988 285 591 439 46 7053 1741 723 1372 62 9215 3487 221 277 128 1414 435 2031
leaf_count=1380 585 856 1702 2191 2103 4104 2793 3570 538 8755 8154 6556 988 285 591 439 46 7053 1741 723 1372 62 9215 3487 221 277 128 1414 435 2031
internal_value=-0.000506132 -0.0117978 -0.00716465 0.0160419 -0.0227342 -0.0109253 -0.0128981 0.0182432 0.00534456 0.0193662 -0.000605629 -0.0269783 -0.016152 -0.0132841 0.00934579 0.015754 -0.0145154 -0.0146993 -0.0152966 -0.0020854 -0.00235146 0.0219219 0.0200226 0.00770241 -0.00123513 -0.0160643 -0.0163595 -0.0118248 -0.00881849 -0.00706346
internal_weight=73795 43864 30811 29931 13053 19583 15479 24823 5108 22041 11228 7936 5117 4129 2782 9194 13465 13419 3844 2014 9526 12847 9277 4570 1083 498 10626 3573 1158 2159
internal_count=73795 43864 30811 29931 13053 19583 15479 24823 5108 22041 11228 7936 5117 4129 2782 9194 13465 13419 3844 2014 9526 12847 9277 4570 1083 498 10626 3573 1158 2159
cat_boundaries=0 1 2 3 4 5
cat_threshold=45 18 24 25 12
is_linear=0
shrinkage=0.05


Tree=24
num_leaves=31
num_cat=1
split_feature=0 0 1 1 0 7 0 1 1 1 0 0 0 10 1 1 1 5 7 10 1 1 10 1 8 7 1 0 1 7
split_gain=5124.17 858.539 387.369 321.004 220.104 180.317 139.957 104.571 103.932 82.3576 73.6623 70.2478 67.9142 63.6302 62.4658 80.0701 75.3362 81.0802 60.1239 54.2247 61.5294 52.0047 89.6462 105.771 89.3859 54.2781 47.537 49.2748 48.0242 63.317
threshold=78.205000000000013 49.005000000000003 47.170000000000009 61.360000000000007 86.135000000000005 53.990000000000002 -18.784999999999997 93.920000000000016 123.105 -1.0999999999999999 59.715000000000011 76.585000000000022 312.51500000000004 -26.784999999999997 97.095000000000013 95.665000000000006 90.670000000000016 0 100.31500000000001 106.53500000000001 -2.7999999999999994 2.4600000000000004 -10.499999999999996 72.065000000000012 52.940000000000033 -1.8349999999999997 66.77500000000002 94.980000000000004 67.410000000000011 109.65500000000002
decision_type=2 2 2 2 2 2 2 2 2 2 2 2 2 2 2 2 2 1 2 2 2 2 2 2 2 2 2 2 2 2
left_child=1 2 6 12 -5 14 -1 9 26 -3 21 -9 -2 18 15 16 -4 -18 -7 20 -8 25 23 -23 -24 -11 27 -6 29 -28
right_child=3 7 5 4 8 13 19 11 -10 10 -12 -13 -14 -15 -16 -17 17 -19 -20 -21 -22 22 24 -25 -26 -27 28 -29 -30 -31
leaf_value=-2.3120119584749954 0.092942222080450429 -1.0978658746231027 -0.4638311318841577 0.19795360155443584 -0.35440452906860076 -0.16748211372066246 -1.0424716078968792 0.28202075938291887 1.0823098413299896 -0.86026619602647225 -0.02173080116080044 -0.11351272186525421 6.9908984130487015 -0.48791291640875195 0.099743129841647973 -1.0981192804265956 1.1866541190148503 -0.75079726421976578 0.59886308455481652 0.17521151118904862 -0.87058543693611468 0.45210793680254047 -0.087350904232386742 -0.38947331355915316 -0.23891495251166683 0.24451051377694705 0.44213548780591411 0.73576094362418276 0.41259692129601078 -0.58470041366886427
leaf_weight=3951 4025 538 7460 2870 71 2715 1193 3131 2370 129 8389 490 303 677 551 185 163 179 881 50 8015 509 852 2098 1311 397 156 1250 18806 80
leaf_count=3951 4025 538 7460 2870 71 2715 1193 3131 2370 129 8389 490 303 677 551 185 163 179 881 50 8015 509 852 2098 1311 397 156 1250 18806 80
internal_value=-0.00060641 -0.0114901 -0.0172829 0.0153436 0.0174726 -0.0110881 -0.0232909 -0.00304304 0.0191198 -0.00497434 -0.00421995 0.00454294 0.00274954 -0.00270302 -0.0152846 -0.0164079 -0.015637 0.00730994 -5.56174e-05 -0.0199287 -0.0202107 -0.00883686 -0.0104822 -0.00423859 -0.0180074 0.00608365 0.0179664 0.0271385 0.0173301 -0.00508475
internal_weight=73795 43864 26020 29931 25603 12811 13209 17844 22733 14223 13685 3621 4328 4273 8538 7987 7802 342 3596 9258 9208 5296 4770 2607 2163 526 20363 1321 19042 236
internal_count=73795 43864 26020 29931 25603 12811 13209 17844 22733 14223 13685 3621 4328 4273 8538 7987 7802 342 3596 9258 9208 5296 4770 2607 2163 526 20363 1321 19042 236
cat_boundaries=0 1
cat_threshold=1
is_linear=0
shrinkage=0.05


Tree=25
num_leaves=31
num_cat=8
split_feature=0 0 0 1 1 1 0 2 2 1 2 7 10 1 2 1 7 2 1 1 2 2 8 2 9 0 1 7 9 9
split_gain=4736.17 650.304 590.425 261.091 237.483 156.749 141.12 138.399 127.545 82.861 80.1245 70.4032 67.4198 89.4538 66.1105 65.6053 64.4746 62.8433 80.5115 62.61 60.4404 59.7803 57.6066 55.6102 54.9852 52.8052 51.1757 48.8864 49.1792 45.5097
threshold=69.00500000000001 -0.98999999999999988 90.510000000000005 91.020000000000024 61.360000000000007 35.665000000000006 56.57500000000001 0 1 124.07500000000002 2 93.00500000000001 -64.204999999999998 79.995000000000019 3 66.77500000000002 49.005000000000003 4 84.64500000000001 67.110000000000014 5 6 -42.817999999999991 7 22.169104367878003 337.92500000000007 177.05000000000004 52.615000000000002 0.60712476122309977 1.1079002015864468
decision_type=2 2 2 2 2 2 2 1 1 2 1 2 2 2 1 2 2 1 2 2 1 1 2 1 2 2 2 2 2 2
left_child=1 5 10 6 25 7 8 22 -3 15 -2 12 13 20 26 -6 -10 18 -15 -18 -7 -5 -1 -14 27 -4 -11 -23 -29 -8
right_child=2 3 4 21 9 11 29 -9 16 14 -12 -13 23 17 -16 -17 19 -19 -20 -21 -22 24 -24 -25 -26 -27 -28 28 -30 -31
leaf_value=-2.1910100090716287 -0.04187241458545117 -0.21362191532426886 0.18278482725241008 0.38537194646134199 0.67983798934063422 -1.5772581424860048 -0.15014149792712389 -1.3382869416419805 -0.44252532523252608 0.11613384200585629 0.15486478920093952 0.81848179977679481 1.3048843461888742 1.4941398596628575 1.5744759769149468 0.3919670752312101 -0.31710734799312129 -1.784518929837779 -0.33410319707463287 -0.24913512058925918 -2.2659309807014423 -0.33766280667470067 -0.80385361411175471 -0.85235215660770436 0.33767593034822885 6.8693151313009686 0.84145282389243625 0.456103356636401 -0.1213286991427701 -0.032260817435001601
leaf_weight=421 2431 3803 3319 875 1281 1144 617 4964 8317 424 7710 158 121 106 1560 18088 3102 276 286 2529 1618 755 1229 436 999 233 154 158 1747 4934
leaf_count=421 2431 3803 3319 875 1281 1144 617 4964 8317 424 7710 158 121 106 1560 18088 3102 276 286 2529 1618 755 1229 436 999 233 154 158 1747 4934
internal_value=-0.000732434 -0.0128294 0.0125313 -0.00879437 0.0166507 -0.0232689 -0.0109304 -0.0280466 -0.0131063 0.0186288 0.00235184 -0.0156454 -0.0169426 -0.0195627 0.0279701 0.0175977 -0.0153174 -0.00314371 0.00970149 -0.0111969 -0.0235337 0.0021835 -0.0151807 -0.000807899 -0.000640501 0.00467342 0.0127551 -0.0043985 -0.000131234 -0.00397226
internal_weight=73795 38595 35200 27836 25059 10759 23302 6614 17751 21507 10141 4145 3987 3430 2138 19369 13948 668 392 5631 2762 4534 1650 557 3659 3552 578 2660 1905 5551
internal_count=73795 38595 35200 27836 25059 10759 23302 6614 17751 21507 10141 4145 3987 3430 2138 19369 13948 668 392 5631 2762 4534 1650 557 3659 3552 578 2660 1905 5551
cat_boundaries=0 1 2 3 4 5 6 7 8
cat_threshold=34 24 68 2 85 42 40 96
is_linear=0
shrinkage=0.05


Tree=26
num_leaves=31
num_cat=4
split_feature=0 0 0 8 7 3 7 0 10 0 10 10 10 3 10 7 5 3 0 8 9 10 9 8 10 8 0 0 0 9
split_gain=4398.08 858.591 238.379 233.416 168.533 96.1702 100.562 83.0871 78.3061 76.9634 72.8265 68.8088 66.9715 58.2417 54.0601 57.4675 49.2373 55.2058 54.1778 73.6079 54.7628 48.4988 47.7155 45.4213 44.6333 48.2907 40.0249 39.9147 69.0479 70.6707
threshold=78.205000000000013 9.5650000000000031 90.510000000000005 60.502000000000002 1.2600000000000002 0 57.875000000000007 55.005000000000003 -64.204999999999998 303.51500000000004 40.925000000000011 66.805000000000007 -41.574999999999989 1 0.35500000000000403 99.995000000000019 2 3 -199.99499999999998 -32.766999999999989 44.33202888982165 106.53500000000001 152.23509779657294 -67.705999999999975 -64.204999999999998 -5.1709999999999994 91.50500000000001 100.00500000000001 110.20500000000001 2.0960988918252359
decision_type=2 2 2 2 2 1 2 2 2 2 2 2 2 1 2 2 1 1 2 2 2 2 2 2 2 2 2 2 2 2
left_child=1 4 10 7 16 6 -4 8 -3 11 -2 26 -5 -14 15 23 18 -18 -1 20 -20 -10 27 -6 -17 -26 -8 -7 29 -29
right_child=2 3 5 12 14 22 9 -9 21 -11 -12 -13 13 -15 -16 24 17 -19 19 -21 -22 -23 -24 -25 25 -27 -28 28 -30 -31
leaf_value=0.44783330564545931 0.15922001235618169 0.17563888198685015 -0.13056101134989079 0.3395724451016065 -4.5968667328763955 0.34774647135036363 -0.61151691094673177 -0.072485010167197578 -0.28873411135069116 7.8348714809532254 -0.19903073951776984 0.42201335301694631 -0.16829723933722179 0.0094938601284695785 -1.0817602799768533 0.86457103363008658 0.0022942193400774971 -1.1787901186239431 -3.5964313148166669 -0.95550667341084017 -1.917737213214451 0.1885772018912224 -0.48208547749268221 -0.91082026656680637 0.48096882634661997 -1.1469499412881015 0.39683352890788587 -0.0014966597475343235 1.0141770356053854 0.29749854041002916
leaf_weight=135 4364 951 1136 1702 520 4868 42 4104 14482 519 508 1367 3183 6343 445 185 111 3312 1213 2653 512 46 126 3826 27 114 3969 943 8597 3492
leaf_count=135 4364 951 1136 1702 520 4868 42 4104 14482 519 508 1367 3183 6343 445 185 111 3312 1213 2653 512 46 126 3826 27 114 3969 943 8597 3492
internal_value=-0.000716173 -0.0107993 0.0140607 -0.00624615 -0.0215468 0.0160282 0.0110692 -0.00954144 -0.0112184 0.0136934 0.00394089 0.0119189 -0.000498753 -0.00213101 -0.0144714 -0.0128853 -0.0261089 -0.030631 -0.0226789 -0.0236409 -0.0316812 -0.0121283 0.0179629 -0.014404 0.00736196 -0.0138298 0.0152206 0.0181788 0.0167357 0.0116685
internal_weight=73795 43864 29931 30811 13053 25059 7033 19583 15479 5897 4872 5378 11228 9526 5117 4672 7936 3423 4513 4378 1725 14528 18026 4346 326 141 4011 17900 13032 4435
internal_count=73795 43864 29931 30811 13053 25059 7033 19583 15479 5897 4872 5378 11228 9526 5117 4672 7936 3423 4513 4378 1725 14528 18026 4346 326 141 4011 17900 13032 4435
cat_boundaries=0 1 2 3 4
cat_threshold=512 512 1 128
is_linear=0
shrinkage=0.05


Tree=27
num_leaves=31
num_cat=7
split_feature=0 0 1 0 1 0 2 1 0 1 7 10 1 2 0 1 2 0 7 0 2 0 1 2 2 0 1 2 10 1
split_gain=4095.86 877.375 257.354 201.374 194.404 186.18 185.765 152.042 148.894 104.458 97.1008 90.495 100.807 83.5614 78.004 98.1702 90.8561 82.931 88.6839 70.7339 69.2354 62.3767 57.1684 93.0864 55.9546 52.599 55.6506 52.2466 51.6059 78.7073
threshold=78.205000000000013 4.8050000000000006 61.360000000000007 55.005000000000003 37.780000000000008 95.675000000000026 0 65.050000000000011 -28.534999999999997 2.4600000000000004 99.995000000000019 -62.794999999999995 79.995000000000019 1 100.12500000000001 124.07500000000002 2 104.00500000000001 100.97500000000001 100.52500000000002 3 312.51500000000004 82.240000000000023 4 5 76.585000000000022 138.10000000000002 6 224.23500000000004 93.920000000000016
decision_type=2 2 2 2 2 2 1 2 2 2 2 2 2 1 2 2 1 2 2 2 1 2 2 1 1 2 2 1 2 2
left_child=1 4 21 7 6 -4 8 -3 -1 -10 11 12 13 -6 16 19 -7 18 -17 27 -9 -2 -5 -24 -14 26 -25 -16 -21 -30
right_child=2 3 5 22 10 14 -8 20 9 -11 -12 -13 24 -15 15 17 -18 -19 -20 28 -22 -23 23 25 -26 -27 -28 -29 29 -31
leaf_value=-2.663915670361801 0.062197773440168906 -0.351245911762053 0.17142581098386389 -0.049921169804374443 -1.1905747910733264 0.28214866508506731 -1.1307018966639248 -0.047970546356574321 -0.87409212505486744 0.070768718347618359 0.73432915810645061 0.17347157682610137 -1.6363534774146928 -2.0321802441258052 0.26799175898942024 0.26697212287429867 0.34524448985696526 1.9152133778648228 -0.13222867315804551 0.42400860286008568 -0.2651407340898338 5.9061441617835557 0.4052125318200645 0.10142381899370356 0.25234758237420735 -0.10248086218391422 -0.4515681504198128 -0.35439417765942383 8.8075931352457619 -0.13469344262279251
leaf_weight=1382 4025 8909 5515 8092 1143 923 3904 5148 1368 1056 181 694 227 1739 265 132 3150 1470 136 12811 4418 303 1886 2458 610 473 176 574 492 135
leaf_count=1382 4025 8909 5515 8092 1143 923 3904 5148 1368 1056 181 694 227 1739 265 132 3150 1470 136 12811 4418 303 1886 2458 610 473 176 574 492 135
internal_value=-0.000603699 -0.0103342 0.0136564 -0.00591888 -0.0216596 0.0155626 -0.026511 -0.00928011 -0.0184748 -0.0110561 -0.0135176 -0.0149898 -0.0180828 -0.0225191 0.0177967 0.0162254 0.023975 0.0274453 0.00186567 0.0148596 -0.00490278 0.00237985 -0.0011731 0.00303425 -0.00280765 -0.00229387 0.000455581 0.000774732 0.0157389 0.0297448
internal_weight=73795 43864 29931 31560 12304 25603 7710 18475 3806 2424 4594 4413 3719 2882 20088 16015 4073 1738 268 14277 9566 4328 13085 4993 837 3107 2634 839 13438 627
internal_count=73795 43864 29931 31560 12304 25603 7710 18475 3806 2424 4594 4413 3719 2882 20088 16015 4073 1738 268 14277 9566 4328 13085 4993 837 3107 2634 839 13438 627
cat_boundaries=0 1 2 3 4 5 6 7
cat_threshold=51 42 66 89 42 34 76
is_linear=0
shrinkage=0.05


Tree=28
num_leaves=31
num_cat=10
split_feature=0 8 0 2 7 0 2 2 2 2 0 10 10 7 9 3 9 8 3 3 10 0 3 9 10 7 0 2 10 0
split_gain=3860.69 712.433 487.078 141.584 141.3 89.3253 104.045 84.479 70.7536 68.1184 65.7655 64.182 64.255 58.7116 58.2185 56.0094 55.6653 61.672 54.1357 52.6099 45.1912 43.6855 46.5609 102.27 86.389 47.1724 44.8495 42.8703 47.4309 42.7014
threshold=69.00500000000001 1.6440000000000285 91.50500000000001 0 79.50500000000001 -16.484999999999996 1 2 3 4 58.645000000000003 -10.094999999999997 78.475000000000023 -18.784999999999997 152.23509779657294 5 64.559430443783768 -163.41199999999995 6 7 -41.574999999999989 312.51500000000004 8 10.56411828963912 -40.92499999999999 249.00500000000002 100.52500000000002 9 49.50500000000001 100.20500000000001
decision_type=2 2 2 1 2 2 1 1 1 1 2 2 2 2 2 1 2 2 1 1 2 2 1 2 2 2 2 1 2 2
left_child=1 3 7 -1 10 6 19 -2 29 -7 11 13 27 -3 21 -9 -8 -18 -19 -5 -6 22 23 -10 -24 -26 -25 28 -13 -4
right_child=2 4 8 5 20 9 16 15 14 -11 -12 12 -14 -15 -16 -17 17 18 -20 -21 -22 -23 24 26 25 -27 -28 -29 -30 -31
leaf_value=-1.0492357767638738 -0.043423740260448797 -1.0304315221535418 0.3114625452659347 -1.7556562312685884 0.26071830077585151 -1.087493502442636 -2.0860852350161792 -0.039391603594507177 0.33935879753456111 -0.76313100615432872 -0.035781539804133192 -0.23237910179091231 0.19671063738476421 -0.22087428097352416 -1.0075562018525268 0.2947841195928419 -8.6465332035408373 -2.413324731091504 0.81010306323657744 0.17748148677735359 -0.1207043028886865 6.1798333148664728 -0.13561708691225291 -0.28729320453973489 0.34087396464787789 -0.17832767699117869 0.27622059908453878 -0.37882182989156921 0.52367401211831532 0.59658877864217175
leaf_weight=2947 2476 688 2923 643 1844 548 2594 2404 1295 3256 4580 1393 87 10652 101 5497 230 149 229 397 3509 297 61 484 9085 373 1681 4720 129 8523
leaf_count=2947 2476 688 2923 643 1844 548 2594 2404 1295 3256 4580 1393 87 10652 101 5497 230 149 229 397 3509 297 61 484 9085 373 1681 4720 129 8523
internal_value=-0.000705332 -0.0116272 0.0112699 -0.0223915 -0.00734005 -0.0188679 -0.0238802 0.00217308 0.0150727 -0.0133281 -0.00909479 -0.0104788 -0.0145126 -0.00822751 0.0125607 0.00469599 -0.0283313 -0.0148026 -0.00238095 -0.00980952 -4.67028e-05 0.0128578 0.0124239 0.00745665 0.0142294 0.014612 0.000808314 -0.0151073 -0.00763708 0.0179818
internal_weight=73795 38595 35200 10993 27602 8046 4242 10377 24823 3804 22249 17669 6329 11340 13377 7901 3202 608 378 1040 5353 13276 12979 3460 9519 9458 2165 6242 1522 11446
internal_count=73795 38595 35200 10993 27602 8046 4242 10377 24823 3804 22249 17669 6329 11340 13377 7901 3202 608 378 1040 5353 13276 12979 3460 9519 9458 2165 6242 1522 11446
cat_boundaries=0 1 2 3 4 5 6 7 8 9 10
cat_threshold=64 6 68 13 4 512 256 512 512 28
is_linear=0
shrinkage=0.05


Tree=29
num_leaves=31
num_cat=10
split_feature=0 0 1 1 1 2 8 0 1 7 3 2 2 1 2 1 3 0 1 2 7 1 3 1 1 1 9 2 2 0
split_gain=3577.23 972.626 239.015 206.401 197.104 187.773 146.258 136.806 88.3251 83.1398 80.5653 130.829 76.2105 72.4622 71.8996 69.1214 67.183 69.3919 81.7005 68.2181 65.8142 65.5411 62.245 108.586 61.4539 68.6795 66.8347 71.7867 63.2406 60.7976
threshold=86.135000000000005 9.5650000000000031 37.780000000000008 61.360000000000007 90.180000000000021 0 -29.215999999999983 58.645000000000003 2.4600000000000004 99.995000000000019 1 2 3 128.49000000000004 4 66.77500000000002 5 303.51500000000004 90.180000000000021 6 28.575000000000003 105.29500000000002 7 70.645000000000024 63.685000000000009 78.515000000000015 9.4551919472168517 8 9 82.595000000000013
decision_type=2 2 2 2 2 1 2 2 2 2 1 1 1 2 1 2 1 2 2 1 2 2 1 2 2 2 2 1 1 2
left_child=1 2 5 -2 7 6 -1 24 -8 22 11 -9 29 15 -15 -5 17 18 -17 -18 -10 -19 23 -4 -3 28 -27 -28 -26 -6
right_child=3 4 9 13 12 -7 8 10 20 -11 -12 -13 -14 14 -16 16 19 21 -20 -21 -22 -23 -24 -25 25 26 27 -29 -30 -31
leaf_value=-2.7244155793165348 0.16456981456280176 -0.27890655783304935 -0.53178780444950513 0.56393058190699397 0.51486758682379197 -1.0378661857545013 -0.79168009299016961 0.40969868304909379 0.3352789054258889 0.66591881918677565 -0.082142764645725924 -0.026807285240277423 -0.0053034530012475052 0.18340682692668298 1.5038420636175773 0.0011514823186175251 0.32054078887214249 8.6832348481681354 0.31696276588437233 0.32383026641548374 -1.183630917166818 -0.9715630489225795 -1.2131802578583279 1.1077251346034698 0.36257003228349732 -0.34499592159725234 0.26969559536807675 -0.4442439959890841 -0.2029610887358361 -0.19030738924470542
leaf_weight=1213 3785 8725 346 1321 1546 4098 1542 2012 747 207 5056 3189 6154 557 1186 2000 7050 195 2229 8171 458 24 4331 111 1060 1237 912 991 3182 160
leaf_count=1213 3785 8725 346 1321 1546 4098 1542 2012 747 207 5056 3189 6154 557 1186 2000 7050 195 2229 8171 458 24 4331 111 1060 1237 912 991 3182 160
internal_value=-0.00067823 -0.00892294 -0.0205355 0.0140207 -0.00449392 -0.0258625 -0.0179345 -0.00656577 -0.0115945 -0.0119419 -0.00205226 0.00231686 0.00245547 0.0158206 0.0256168 0.0150071 0.0142636 0.00885791 0.00743675 0.0158432 -0.00145228 0.0363014 -0.0132832 0.00426696 -0.00944 -0.00608236 -0.0116879 -0.00580662 -0.00193305 0.0117716
internal_weight=73795 47277 13053 26518 34224 8058 3960 26364 2747 4995 10257 5201 7860 22733 1743 20990 19669 4448 4229 15221 1205 219 4788 457 16107 7382 3140 1903 4242 1706
internal_count=73795 47277 13053 26518 34224 8058 3960 26364 2747 4995 10257 5201 7860 22733 1743 20990 19669 4448 4229 15221 1205 219 4788 457 16107 7382 3140 1903 4242 1706
cat_boundaries=0 1 2 3 4 5 6 7 8 9 10
cat_threshold=51 256 21 40 2 512 41 128 83 24
is_linear=0
shrinkage=0.05


Tree=30
num_leaves=31
num_cat=0
split_feature=0 0 1 1 8 10 1 7 10 1 1 1 1 10 1 1 0 6 6 9 9 0 0 7 10 1 1 7 10 1
split_gain=3346.98 901.28 232.087 191.698 181.382 91.1314 81.8354 74.7508 84.1873 101.954 74.1499 72.2183 110.545 69.7706 67.663 59.5035 58.2924 108.116 112.939 64.9353 63.7706 56.6911 54.3123 51.6337 58.2843 57.3087 55.1876 50.0012 49.7876 83.6572
threshold=86.135000000000005 9.5650000000000031 37.780000000000008 61.360000000000007 60.502000000000002 -19.324999999999999 43.225000000000001 99.995000000000019 -62.794999999999995 79.995000000000019 177.05000000000004 97.095000000000013 95.665000000000006 -9.4300000000000015 66.77500000000002 91.020000000000024 127.86500000000002 100.12500000000001 98.895000000000024 44.33202888982165 1.6556706282860441 312.51500000000004 58.645000000000003 -16.484999999999996 72.40000000000002 -2.7999999999999994 85.490000000000023 -3.0149999999999992 207.86000000000004 77.870000000000019
decision_type=2 2 2 2 2 2 2 2 2 2 2 2 2 2 2 2 2 2 2 2 2 2 2 2 2 2 2 2 2 2
left_child=1 2 5 21 11 27 -6 8 9 -4 14 12 15 -7 -5 22 17 18 -16 28 -19 -2 23 -3 25 -25 -27 -1 29 -18
right_child=3 4 7 10 6 13 -8 -9 -10 -11 -12 -13 -14 -15 16 -17 19 20 -20 -21 -22 -23 -24 24 -26 26 -28 -29 -30 -31
leaf_value=-1.6903806710085605 0.090842532079533814 -1.1748139478289239 -1.5861172586618277 0.53573405281164455 -0.10549098403553998 -0.41601088409459214 0.047403345415394683 0.63262287822743668 0.060664330747262345 -0.049482472276116067 3.5356715090888176 0.1128592885448203 -0.85174277554107514 -0.74314994077134067 0.21185071967205077 0.23968755198825775 -0.24644781718765962 -0.029354221355540847 0.2982036643992082 1.1371822799087077 0.21020960055498464 5.5254925448441261 -0.050104359233255027 -0.89658818418511577 0.23770789267724909 -0.18045540160491813 -0.38482973650983432 -1.0286673203008803 8.2490731057597273 1.3951179622380814
leaf_weight=2925 3482 974 2957 1321 2695 1031 11621 207 905 926 407 1878 252 2552 3725 707 370 1236 2870 1836 7068 303 2682 512 85 11862 956 1550 219 3681
leaf_count=2925 3482 974 2957 1321 2695 1031 11621 207 905 926 407 1878 252 2552 3725 707 370 1236 2870 1836 7068 303 2682 512 85 11862 956 1550 219 3681
internal_value=-0.000615895 -0.00859086 -0.0197694 0.0136021 -0.00432737 -0.0250186 -3.4926e-05 -0.0113013 -0.0125731 -0.0157739 0.0153367 -0.0074141 -0.00838602 -0.0190762 0.0149512 -0.0079199 0.0142609 0.0125747 0.0173541 0.0183754 0.0087789 0.00318362 -0.00850858 -0.00972618 -0.00891912 -0.0091823 -0.00852707 -0.0297765 0.0217564 0.0205011
internal_weight=73795 47277 13053 26518 34224 8058 14316 4995 4788 3883 22733 19908 18030 3583 22326 17778 21005 14899 6595 6106 8304 3785 17071 14389 13415 13330 12818 4475 4270 4051
internal_count=73795 47277 13053 26518 34224 8058 14316 4995 4788 3883 22733 19908 18030 3583 22326 17778 21005 14899 6595 6106 8304 3785 17071 14389 13415 13330 12818 4475 4270 4051
is_linear=0
shrinkage=0.05


Tree=31
num_leaves=31
num_cat=3
split_feature=0 8 1 1 1 1 10 0 3 1 8 3 6 7 9 10 1 3 1 0 1 0 1 1 7 10 6 1 10 8
split_gain=3037.62 874.86 188.126 186.346 160.877 135.118 111.377 111.338 76.1463 73.0717 75.0832 150.09 154.269 80.2297 67.7911 63.1946 93.9774 53.6477 53.6148 51.5098 100.625 49.7929 49.7624 50.4978 49.4058 46.7237 58.9909 45.4216 44.6642 53.7326
threshold=86.135000000000005 1.6440000000000285 61.695000000000007 90.180000000000021 37.780000000000008 -2.7999999999999994 -19.324999999999999 49.005000000000003 0 66.77500000000002 128.35500000000002 1 100.97500000000001 90.510000000000005 44.33202888982165 -64.204999999999998 79.995000000000019 2 6.8850000000000007 178.16500000000002 78.265000000000015 93.00500000000001 92.865000000000023 113.03500000000001 -199.99499999999998 78.475000000000023 56.225000000000001 83.730000000000004 -21.824999999999996 84.751000000000019
decision_type=2 2 2 2 2 2 2 2 1 2 2 1 2 2 2 2 2 1 2 2 2 2 2 2 2 2 2 2 2 2
left_child=1 4 21 5 6 25 -1 28 -9 -4 11 12 -11 -14 19 16 24 22 -8 20 -12 -2 -5 -24 -6 -3 -27 -22 29 -7
right_child=2 3 9 17 15 7 18 8 -10 10 14 -13 13 -15 -16 -17 -18 -19 -20 -21 27 -23 23 -25 -26 26 -28 -29 -30 -31
leaf_value=-1.3026482428814337 -0.3281771937869209 -0.99697289803827016 0.62894704499528098 0.96130237695917775 0.81466847183831126 -0.20766643010525832 -0.65028090051205645 0.011623838582955416 -0.078235842158000335 0.28206664627743339 -1.3694975662832194 0.21360054516744142 0.3270144924844452 0.0053652873202018727 1.2092028143675784 -0.20337143273538061 0.014189388001100057 0.013805555319960305 -0.25026655498303807 3.4777347968150942 1.974449353133062 0.18482287009621814 0.14360052347016428 1.0944229402814816 -1.6058286028187769 0.18893503877331597 -0.68686526155466798 1.1745961668402687 -0.38012916011644649 0.89487145928607648
leaf_weight=3973 318 849 1228 83 92 6798 2659 7151 7457 2360 194 12149 200 1011 1876 951 680 6996 428 1192 295 3560 784 144 2347 89 75 2135 5477 244
leaf_count=3973 318 849 1228 83 92 6798 2659 7151 7457 2360 194 12149 200 1011 1876 951 680 6996 428 1192 295 3560 784 144 2347 89 75 2135 5477 244
internal_value=-0.000764957 -0.00836242 0.01278 -0.00458821 -0.0206199 -0.0065032 -0.0251841 -0.00583367 -0.00286829 0.014523 0.0138427 0.0120611 0.0210725 0.00656482 0.0187632 -0.0127027 -0.016143 0.00214188 -0.0180596 0.0225891 0.0186738 0.00260444 0.012908 0.00959052 -0.0207257 -0.0244324 0 0.0214403 -0.00929387 -0.00666004
internal_weight=73795 47277 26518 36147 11130 28140 7060 27127 14608 22640 21412 15720 3571 1211 5692 4070 3119 8007 3087 3816 2624 3878 1011 928 2439 1013 164 2430 12519 7042
internal_count=73795 47277 26518 36147 11130 28140 7060 27127 14608 22640 21412 15720 3571 1211 5692 4070 3119 8007 3087 3816 2624 3878 1011 928 2439 1013 164 2430 12519 7042
cat_boundaries=0 1 2 3
cat_threshold=256 128 128
is_linear=0
shrinkage=0.05


Tree=32
num_leaves=31
num_cat=2
split_feature=0 8 0 1 1 1 1 10 10 1 1 1 1 1 10 1 10 0 0 3 8 3 1 1 1 7 7 7 10 9
split_gain=2786.43 626.463 362.132 171.417 129.686 122.744 97.5878 92.8045 70.9028 94.8225 67.7921 65.4999 80.2115 62.5544 62.9499 61.4845 58.3929 57.6951 57.0596 152.987 127.829 63.5759 53.0767 59.3503 51.7401 49.2004 50.1806 48.9083 47.5086 46.5235
threshold=69.00500000000001 1.6440000000000285 91.50500000000001 37.780000000000008 61.695000000000007 -2.7999999999999994 91.020000000000024 -19.324999999999999 40.005000000000003 35.035000000000004 66.77500000000002 26.510000000000002 15.360000000000001 98.240000000000023 -64.204999999999998 44.925000000000004 78.475000000000023 53.990000000000002 100.12500000000001 0 128.35500000000002 1 148.85500000000005 141.09000000000003 6.8850000000000007 64.00500000000001 69.785000000000011 -199.99499999999998 42.685000000000009 1.6556706282860441
decision_type=2 2 2 2 2 2 2 2 2 2 2 2 2 2 2 2 2 2 2 1 2 1 2 2 2 2 2 2 2 2
left_child=1 3 15 7 -4 16 8 -1 9 11 -6 12 -7 14 27 25 -3 -14 19 -12 29 -22 23 -8 -9 -2 -27 -5 -10 -20
right_child=2 5 4 13 10 6 22 24 28 -11 18 -13 17 -15 -16 -17 -18 -19 20 -21 21 -23 -24 -25 -26 26 -28 -29 -30 -31
leaf_value=-1.2375158307373622 -0.43057611543258895 -0.94712425313635651 0.15274400126620977 1.2768733729768682 0.60741581647965859 -0.54884030635077508 0.038546850106581591 -0.61924314031413852 0.49037623552977067 -0.14201943817196075 0.2678639637301693 -0.74943873274760375 0.37352467524091787 0.34328277284737396 -0.14307814698995217 0.085933393756440074 0.14445724188574724 -0.14379670486012799 -0.0047877141655419571 0.19262595316419537 -0.20690317439552999 1.5741263252938567 0.46223973098011301 -1.7916379798272957 -0.25492098281723169 0.5215063896180745 -0.19719740875505637 -1.420211113086812 -0.0093741702156499695 0.22731392457710201
leaf_weight=3973 636 844 3599 100 1193 2418 4296 2651 162 15247 2105 1101 489 141 827 9116 142 155 1291 2854 307 5206 189 62 418 253 372 2883 2497 8268
leaf_count=3973 636 844 3599 100 1193 2418 4296 2651 162 15247 2105 1101 489 141 827 9116 142 155 1291 2854 307 5206 189 62 418 253 372 2883 2497 8268
internal_value=-0.00074463 -0.0100233 0.00942898 -0.0201173 0.012708 -0.00600319 -0.00536144 -0.0247941 -0.00673569 -0.00778465 0.0141962 -0.0144727 -0.010712 -0.0117818 -0.0129921 0.00158524 -0.0233266 0.00496894 0.0135066 0.0181589 0.0119758 0.0180392 0.00130856 0.00018357 -0.0182633 -0.00876289 0.0012 -0.0163761 0.000921399 0.00847892
internal_weight=73795 38595 35200 10993 24823 27602 26616 7042 22069 19410 21224 4163 3062 3951 3810 10377 986 644 20031 4959 15072 5513 4547 4358 3069 1261 625 2983 2659 9559
internal_count=73795 38595 35200 10993 24823 27602 26616 7042 22069 19410 21224 4163 3062 3951 3810 10377 986 644 20031 4959 15072 5513 4547 4358 3069 1261 625 2983 2659 9559
cat_boundaries=0 1 2
cat_threshold=128 128
is_linear=0
shrinkage=0.05


Tree=33
num_leaves=31
num_cat=10
split_feature=8 8 6 2 9 3 10 2 3 6 7 6 9 3 2 10 7 2 10 8 6 3 7 3 9 9 6 8 9 2
split_gain=2550.59 518.229 358.541 183.007 86.3692 106.117 67.8448 65.85 79.1908 81.7961 65.6988 62.6459 62.6309 58.8498 60.2136 65.8758 65.8745 55.1798 54.9344 51.0064 46.6632 45.934 45.7215 45.3472 41.6585 45.4685 64.9029 131.474 40.7372 67.6417
threshold=64.800000000000026 1.6440000000000285 91.50500000000001 0 11.194924253598609 1 -81.324999999999989 2 3 303.51500000000004 -0.98999999999999988 100.20500000000001 152.23509779657294 4 5 -5.2549999999999981 90.510000000000005 6 -49.124999999999993 316.59500000000008 117.45500000000001 7 103.06500000000001 8 33.541447157622564 1.5583674295630818 100.12500000000001 114.36300000000001 38.703811758531238 9
decision_type=2 2 2 1 2 1 2 1 1 2 2 2 2 1 1 2 2 1 2 2 2 1 2 1 2 2 2 2 2 1
left_child=1 3 17 -1 -5 6 -6 8 9 -4 23 -10 19 20 -15 -16 -17 18 -2 24 22 -19 -13 -3 25 26 -9 -28 -22 -30
right_child=2 10 7 4 5 -7 -8 12 11 -11 -12 13 -14 14 15 16 -18 21 -20 -21 28 -23 -24 -25 -26 -27 27 -29 29 -31
leaf_value=-0.59772297027896293 1.0752234388041237 -1.1058611772214471 0.15082037276285068 -0.71349831577965306 1.2884839369433931 -1.2334038811683439 -0.62176721038549454 0.24341900132813521 0.23815447174106766 6.2589263167450611 -0.12135911473075618 0.29822833595777781 -1.2738634979298482 0.16479255118083458 0.29265506958202964 0.18775838607551451 -0.32038300334194364 -0.025546396677302144 -0.062471153439384614 6.2075586520913069 1.3960937569217216 0.21747568777093634 0.015999060294750934 -0.20653472351321353 0.23505632992046657 0.27164632277781992 -0.13643809177443558 0.86883593165058604 3.4903721270228254 -0.32079383745736295
leaf_weight=3817 199 1576 2350 2702 90 4523 123 752 2394 344 21946 1117 107 749 44 62 190 3313 2967 266 1859 6716 697 1366 2655 8924 679 357 684 227
leaf_count=3817 199 1576 2350 2702 90 4523 123 752 2394 344 21946 1117 107 749 44 62 190 3313 2967 266 1859 6716 697 1366 2655 8924 679 357 684 227
internal_value=-0.000778508 -0.0102662 0.00832891 -0.0191693 -0.0237379 -0.0197002 0.0147887 0.0119127 0.0148644 0.00746102 -0.00623995 0.0173688 0.00959273 0.0144875 0.0037799 -0.0150327 -0.0253968 0.00168624 -0.00406171 0.00989878 0.0169284 0.00350134 0.0106946 -0.0132563 0.00946734 0.010857 0.00357942 -0.00453668 0.0210108 0.0123491
internal_weight=73795 36143 37652 11255 7438 4736 213 24457 10717 2694 24888 8023 13740 5629 1045 296 252 13195 3166 13633 4584 10029 1814 2942 13367 10712 1788 1036 2770 911
internal_count=73795 36143 37652 11255 7438 4736 213 24457 10717 2694 24888 8023 13740 5629 1045 296 252 13195 3166 13633 4584 10029 1814 2942 13367 10712 1788 1036 2770 911
cat_boundaries=0 1 2 3 4 5 6 7 8 9 10
cat_threshold=50 128 41 512 256 8 68 512 512 33
is_linear=0
shrinkage=0.05


Tree=34
num_leaves=31
num_cat=3
split_feature=8 8 6 2 1 1 1 1 1 1 1 10 1 2 10 1 6 6 6 1 1 2 1 1 1 9 9 7 1 7
split_gain=2364.46 477.702 351.948 162.656 223.807 110.032 99.2499 89.738 102.385 87.8475 75.9623 64.348 64.0311 61.6658 70.3803 59.8578 59.2472 101.764 88.1106 69.0891 64.082 61.7385 57.7209 54.3287 53.5669 61.5133 52.3804 58.1313 50.0775 48.5198
threshold=64.800000000000026 1.6440000000000285 91.50500000000001 0 37.780000000000008 -2.7999999999999994 61.695000000000007 97.095000000000013 95.665000000000006 79.995000000000019 66.77500000000002 -17.644999999999992 91.020000000000024 1 -8.8749999999999982 177.05000000000004 100.12500000000001 120.06500000000001 98.895000000000024 74.285000000000011 151.61500000000004 2 95.225000000000009 75.02500000000002 73.15000000000002 7.3314940311478631 13.328158463142811 287.15500000000003 71.205000000000013 -18.784999999999997
decision_type=2 2 2 1 2 2 2 2 2 2 2 2 2 1 2 2 2 2 2 2 2 1 2 2 2 2 2 2 2 2
left_child=1 3 -2 22 11 -3 -4 8 12 23 -8 -5 29 14 -13 16 18 26 -12 21 -20 24 -1 28 25 -19 -18 -28 -6 -7
right_child=2 5 6 4 9 7 10 -9 -10 -11 15 13 -14 -15 -16 -17 17 19 20 -21 -22 -23 -24 -25 -26 -27 27 -29 -30 -31
leaf_value=-0.61609193213247948 0.034193655367887037 -0.7276430659178198 0.13469028005999206 -1.2585821286325585 -1.3246491552752859 -0.8822101646281052 0.57910270211018833 0.16793003098540638 -0.80378487055242687 0.2928739177202932 0.097558088792977324 0.80550607272675101 0.17105352129224516 -0.52670227208675569 -0.69363256723093591 3.1201684679318804 0.037273211030620958 -0.62933676377305692 0.2504412979167796 0.99530669631711044 -0.012234686053240296 -1.0533026226451596 1.218175721604517 -1.7607703278515281 -1.4564834713574932 3.0612474239643479 0.27223000417019066 -0.76243897405461714 0.91720184115474468 -0.13428274216805569
leaf_weight=3762 13195 976 3453 2898 1709 1132 1150 2487 290 513 1806 104 962 1439 422 408 4387 67 2963 6998 41 181 55 210 77 226 2639 61 143 19041
